xanax,-0.0214805,-0.121305,0.145779,-0.126096,-0.114934,-0.0642776,-0.132885,-0.129005,-0.133921,-0.0166883,-0.037422,-0.0369372,0.04321,-0.0411314,-0.0905408,-0.130339,0.144687,0.0513872,0.0487403,-0.0307995,-0.152222,-0.149282,0.0594401,-0.0226823,-0.0180547,0.129015,0.0221807,-0.0133641,-0.045156,-0.100028,0.11913,0.0689246,0.0727098,-0.0147297,0.0806041,-0.0216111,-0.0544211,0.150441,0.0563129,-0.125731,0.137936,-0.0708334,0.058998,-0.10634,-0.123293,-0.0277887,-0.0316675,0.115657,0.0629032,-0.00351383,-0.0600545,0.103829,-0.0166698,-0.0188785,0.134882,-0.0923664,0.11865,-0.0593889,0.125638,0.0912022,-0.154198,0.0190561,0.0623098,0.0143004,0.111157,-0.0833954,-0.0518989,0.131939,0.0198544,0.0110451,0.0278713,0.118599,-0.148043,0.100437,-0.0491755,-0.131695,-0.0855213,-0.0901334,0.14309,0.0135329,0.103755,-0.100588,0.108514,0.0462168,-0.0543494,0.00975411,0.00126855,-0.120977,-0.109396,0.124817,-0.0603207,-0.00754923,-0.122627,-0.0381464,0.0646922,0.0680208,0.119528,0.0660889,0.0418915,-0.0988997,-0.102782,0.0776818,-0.00752615,-0.0855939,0.00194018,-0.113019,0.0450706,0.12676,0.0311191,-0.0636099,-0.0128785,-0.151326,-0.12551,0.0506968,0.153374,-0.0673493,0.118792,0.0551443,0.00616387,0.114399,-0.143478,-0.0784804,0.00894222,-0.0225531,0.0502872,-0.060284,0.0422352,0.0516554,
im,0.0335498,0.0256719,0.0347895,0.125797,-0.0958647,-0.139771,0.0283251,0.0275106,-0.0123235,0.0916603,0.0498278,-0.0569328,-0.141424,-0.110114,-0.166327,-0.13102,0.0743794,0.0523695,0.0802263,0.0570943,0.0835205,0.040523,0.032991,0.0401939,-0.0736693,0.0519928,-0.0557261,0.0689753,-0.0662653,-0.155395,0.0249949,0.121284,0.0282547,0.0546837,-0.02638,-0.172001,-0.0382414,0.0601965,0.0450346,-0.108847,-0.0661987,0.0764686,0.0841808,0.0536481,-0.0600395,0.0594479,0.105616,-0.113968,0.0240936,-0.0511851,0.0642602,-0.0854802,-0.0346945,-0.0524383,-0.0230861,-0.00469308,-0.213716,-0.092294,-0.0879262,0.184911,0.0157795,-0.109411,-0.0924534,-0.0447352,0.0663873,-0.0496138,-0.132705,0.0305315,0.00875399,-0.152303,0.103224,-0.114642,-0.19217,0.095593,-0.015533,-0.115574,0.060378,-0.0191403,-0.0337499,0.0345356,0.179068,0.0496736,-0.0589636,0.0745122,0.00865169,0.104346,-0.075787,0.0805298,-0.067221,0.104568,-0.030201,-0.00783413,-0.0860832,0.00589474,0.0183055,-0.141966,-0.0522102,-0.0857206,-0.0110503,0.0854215,-0.0623516,0.0677024,0.119686,0.0234812,0.0985612,0.122322,0.0649199,-0.014609,-0.0312449,-0.152731,0.0567577,0.0563371,-0.0998126,0.106762,0.0952359,-0.106499,0.0733226,0.0103207,-0.00511732,0.0795126,-0.00284202,-0.119008,0.105,-0.0249256,0.100777,-0.225122,-0.0889229,0.171906,
sleep,-0.131741,-0.109269,-0.06438,0.0227307,-0.03691,0.0803119,-0.0778477,-0.100098,-0.0942664,0.0589631,-0.00248324,-0.136182,-0.0467904,0.0525011,-0.046361,0.0720177,0.0184562,0.0657561,-0.0568623,-0.113928,0.00126155,0.177871,0.145446,0.0398612,0.132083,-0.0878082,-0.00874242,-0.0757017,-0.202518,-0.00084422,-0.093782,0.00674139,-0.0808748,-0.0202478,0.0482456,0.034318,-0.0727901,-0.0413134,-0.136949,-0.167351,0.0515611,0.0341932,-0.10001,0.039454,0.00473558,0.0345266,-0.0471357,0.0668887,-0.0976325,-0.017892,0.0339994,-0.082374,-0.207333,-0.09954,-0.00669977,-0.0785904,0.0484952,0.0224076,-0.0402487,-0.0332026,0.111084,-0.0209235,-0.0150912,-0.0278651,-0.186496,-0.197311,-0.00781574,0.00734148,0.0517499,-0.168896,-0.047836,-0.0588321,0.117279,0.0305724,0.103399,-0.061837,0.0683572,-0.0190067,0.0999529,0.0541971,-0.0690781,-0.0946675,0.0415282,-0.0929981,-0.00681296,0.00411238,-0.197608,0.0113387,-0.108375,0.0996346,-0.001025,-0.0193711,-0.015215,0.122208,-0.0184328,0.139778,-0.0775741,-0.0983196,-0.00146474,-0.128429,-0.142288,0.0678088,-0.0249262,-0.130295,-0.0948053,0.136383,-0.145473,-0.167725,-0.0489694,-0.0110584,-0.0728358,-0.0623277,-0.033648,-0.0114859,0.013083,0.143213,-0.0882103,-0.0282589,0.112803,-0.0676962,0.187111,-0.142002,-0.0778466,0.0107022,0.00814557,-0.0381847,0.00320764,0.0822749,
like,0.0839722,-0.111817,-0.0829403,0.0319387,0.129373,0.132047,-0.078787,0.151285,0.020788,-0.0846907,0.0743109,-0.158501,-0.0846662,-0.0178525,-0.115556,0.0266437,0.116513,-0.0150861,-0.0733582,-0.117158,-0.0547882,-0.00398496,-0.0747553,-0.0821203,-0.0471054,0.0347553,0.0444669,0.0134179,0.00340547,0.00473286,-0.0661187,0.180115,-0.0311338,-0.0946264,-0.0338519,-0.0158526,-0.0939896,-0.130808,-0.0420299,-0.0495473,-0.143978,0.0194629,0.0777788,0.0302982,-0.0786003,0.12626,0.100428,-0.062762,0.0691775,-0.0762541,0.0204355,0.0811862,-0.0118545,0.0179707,0.0601227,-0.185583,0.07847,0.119226,0.171201,-0.0938367,-0.0238112,-0.0842384,0.0184563,0.131859,-0.0482515,0.0350355,-0.0344032,0.0737337,-0.115874,-0.112239,-0.0997305,0.0639655,-0.017114,-0.119953,-0.0353937,0.129447,0.0291051,0.0918231,-0.0578863,-0.010907,0.159284,-0.0311731,0.0890223,-0.00705403,0.17554,-0.0724822,-0.0695651,0.0362094,0.0409036,-0.0362611,0.112285,0.14289,0.0843722,-0.0806814,-0.0815449,-0.0310663,-0.103914,-0.0260381,-0.0148651,0.109389,0.112086,0.00235181,0.121652,0.0687997,0.185632,0.0984858,0.0318439,-0.0190039,0.0204564,-0.0365722,0.0582442,-0.166521,-0.0524308,0.0351218,0.0127958,-0.123823,0.0388902,0.0965741,0.128329,0.185549,0.0225228,-0.074372,0.0856328,0.0927817,0.0389565,-0.203142,-0.0197147,-0.0553236,
take,-0.00416363,0.200523,0.029628,0.0190524,-0.130761,-0.00113905,0.0745523,0.167853,-0.0296515,0.0359192,-0.00477011,-0.145504,-0.0830848,0.110172,0.0768929,0.0602253,-0.15354,0.0618642,0.00610636,-0.0919589,0.182797,0.149829,0.0727946,-0.0921684,-0.114043,0.06132,0.0644075,-0.144737,-0.016344,0.0885605,0.0125888,0.0428396,-0.158688,-0.0261746,0.0131235,-0.156387,0.0209015,-0.0162557,-0.0687749,0.0989958,-0.0424767,-0.0570142,-0.101993,-0.0637057,-0.019394,-0.0596546,0.0536,-0.0273297,0.0408653,0.0582033,-0.0462245,-0.0133364,-0.127549,-0.0555392,0.065127,0.0596632,-0.0710005,0.0476759,-0.0209711,-0.0276049,-0.115056,0.0207751,0.0942719,0.0205216,-0.0807655,-0.0157762,-0.142373,-0.0790883,0.186885,0.0780939,0.125521,0.0541806,0.0282539,0.103383,-0.131654,0.0315103,-0.046477,0.0420544,0.0119059,0.0870347,-0.0541693,-0.103905,-0.0185261,-0.0366398,-0.100616,0.0174116,0.0658284,0.0783658,-0.112095,-0.0218377,-0.0773729,0.149476,-0.102601,-0.0752802,-0.0658048,0.109708,-0.0972951,0.0839009,0.0792831,0.0787873,0.0364286,-0.0361069,0.000947828,-0.0171681,0.161985,-0.0115816,0.0134351,0.0300359,-0.188813,-0.0207269,-0.0883822,0.159659,-0.00686749,0.332343,0.048547,0.0827578,-0.0476527,0.0305499,-0.0369664,-0.0330229,-0.0713177,0.113644,0.0122829,0.117685,0.0506271,-0.0682081,-0.0352031,0.010549,
took,-0.0048833,0.0940326,-0.0491561,-0.0484801,-0.0244865,-0.0989419,-0.0741232,0.0062866,-0.0936243,-0.069217,-0.0805964,-0.0621204,-0.0414332,-0.0544683,0.0601538,-0.193445,0.0699635,0.0355494,0.0066413,-0.140187,-0.066848,0.0161978,-0.0347568,0.0380809,0.0566855,0.0608801,0.00394089,-0.0850858,0.0358206,0.114206,0.116118,0.144876,-0.0349125,-0.0187951,0.174429,0.0118641,0.064104,-0.0188211,-0.0881939,-0.0784332,-0.118726,-0.0998477,-0.189789,0.0407298,-0.00160909,0.222771,-0.0109459,0.103775,-0.0986847,-0.111209,-0.0159431,-0.0585349,-0.0503815,-0.00847856,-0.0598592,0.0314925,-0.213079,0.0811583,0.0139119,0.0177259,0.0342861,0.0401263,0.093022,-0.0134609,-0.0438842,-0.0171145,-0.100179,0.0585345,0.0512526,0.106086,0.0397288,0.0584148,-0.104088,-0.166342,-0.0867553,-0.00169672,0.105108,-0.126451,0.0323946,-0.021648,-0.0814626,0.096809,0.175747,0.0612277,0.121085,-0.00559279,0.105928,-0.0885459,0.156808,-0.0283759,0.0353975,-0.0296736,-0.00521128,-0.0138486,0.145593,0.0959639,-0.130151,-0.0821019,0.206589,0.0717102,0.0715754,-0.101944,-0.00994776,-0.0817761,-0.0980044,0.0895165,-0.0637626,-0.0628568,-0.100997,0.00324708,0.0243714,0.0473802,0.171712,-0.182864,0.0814434,-0.108586,0.0701476,-0.11418,0.0340444,0.0498366,-0.0863327,-0.0646917,0.0720287,0.0667241,-0.00656976,-0.1221,0.103761,-0.0241795,
adderall,-0.0865235,0.0788,0.203447,-0.0491842,-0.00105494,0.00675861,-0.0116805,0.0452306,-0.026329,0.0513693,-0.0413038,-0.0875246,0.184803,0.0488832,0.0122643,-0.0297782,-0.00328309,0.0944011,0.0164766,-0.110972,-0.0366753,-0.119984,-0.0447188,0.0233589,-0.0579055,0.132615,0.125668,0.0225507,-0.172509,0.00200283,-0.0308935,-0.0157825,0.0394973,0.00374254,-0.0567478,-0.0245983,0.025922,-0.135437,0.0779689,-0.108079,-0.0268942,-0.0250883,0.0412096,-0.0384234,0.0866412,0.074495,0.00812973,-0.0534748,0.0506263,-0.151188,-0.0484295,-0.0118372,0.0606666,0.0097688,-0.00506647,-0.0984867,-0.00202292,0.176065,-0.0284768,0.0413416,-0.0729974,0.137251,-0.0382196,-0.0547611,-0.040238,-0.00296443,0.0885603,0.0160215,0.0505269,-0.0378495,0.0125469,0.0687298,0.00877563,-0.021628,-0.0700871,0.0255713,0.0282497,0.143125,0.219871,-0.037194,-0.0926527,0.0374123,0.0570576,-0.0237859,0.0741489,-0.0260027,0.0222998,-0.106971,-0.000550207,-0.0503939,0.0118621,0.257928,0.079094,-0.0815307,0.140172,-0.110822,-0.1947,-0.209843,0.0436432,-0.0560447,0.0222139,0.0577234,-0.104705,0.0434016,-0.11789,0.12381,-0.0998341,0.0518636,0.113861,0.0335743,-0.0916122,-0.0167277,0.0812811,0.0690614,0.0539714,0.0851653,0.00441,0.0563729,-0.0811069,-0.124181,0.224365,0.102673,-0.0846588,-0.117492,0.0516159,-0.226829,0.00827576,0.151611,
feel,-0.00441388,0.0416924,-0.146706,0.000622775,-0.0609331,-0.0442516,-0.0350889,0.113724,-0.0538546,0.00492614,0.00671701,-0.12751,-0.0261442,-0.102726,-0.0875797,-0.0116137,0.0535253,0.0117563,0.0404556,-0.0304615,0.0293975,-0.0712607,-0.00467201,-0.097022,-0.0879633,-0.170101,0.159608,-0.0176663,-0.00779853,-0.0483097,-0.0417917,0.0433037,-0.0331553,-0.149845,0.07871,0.0713034,-0.155023,0.0345677,0.0116568,0.12642,-0.0779408,0.0785449,0.127209,0.060252,-0.0674998,0.0585254,0.108985,0.0717193,0.0972012,-0.00575168,0.013071,0.180855,-0.106996,-0.0964816,0.0123611,0.0846444,-0.0947072,-0.163407,-0.142244,-0.0756786,-0.034072,-0.0681988,-0.212883,-0.0705292,-0.0778057,-0.01065,0.0428942,0.0757595,0.124922,-0.00379615,0.0315793,0.156328,-0.0868054,-0.0157704,-0.0299741,-0.0659123,0.112702,-0.121683,-0.110986,-0.0993598,0.0559571,-0.0969145,0.0607684,-0.0926647,-0.156118,0.0480378,0.0804783,-0.19924,-0.00553121,0.0870004,-0.0636228,0.0290613,0.226098,-0.166476,0.122154,-0.0456599,-0.0358665,-0.0272055,0.00521757,-0.0125121,0.0532645,-0.076682,0.118266,0.0588168,0.00648331,-0.0592454,-0.068659,0.026437,0.0102919,-0.10581,-0.163254,0.123676,0.0233398,0.00251174,-0.0121986,0.0625801,0.0617336,-0.156826,0.14184,0.030799,0.181647,0.00179774,-0.0303556,-0.00619085,0.0588007,-0.0211414,-0.0402103,-0.0105582,
&amp,-0.0823271,-0.132504,0.13719,-0.0415219,0.0539611,0.102653,-0.0584818,-0.0628925,-0.183808,-0.134422,-0.0500534,-0.0745636,-0.18151,-0.094164,0.0130246,-0.0732633,0.0770304,-0.0780926,-0.101825,-0.00414561,0.0149436,0.125813,0.0264553,-0.00971473,0.00559588,0.0243093,-0.00275863,-0.103846,-0.109578,-0.0957656,0.0820556,0.0853193,0.00171107,0.0355196,-0.105546,0.15401,-0.0664316,-0.00493487,0.126209,-0.251366,-0.0410292,0.0746668,0.0677194,0.0409127,0.08726,0.00315575,-0.0430831,0.0188851,-0.0152823,-0.120143,0.00197195,0.027143,-0.0787577,-0.157718,-0.12566,-0.0532134,0.0352006,0.0128317,-0.0777538,-0.136845,-0.0876135,0.00169762,-0.0713724,0.0691539,-0.032466,0.0318377,-0.0118045,-0.0254217,-0.108196,0.122309,0.030105,0.0463861,-0.0324232,0.00364878,-0.0922569,0.161047,-0.103147,-0.105758,-0.100748,-0.0440202,0.0294506,-0.108466,-0.0356365,-0.0479769,-0.0488614,-0.00537543,-0.139401,-0.0460017,0.0680003,-0.172542,0.0501543,0.0373354,0.00428328,-0.0533956,-0.00041796,0.0999921,0.0310965,-0.0610544,-0.264792,0.0855298,-0.0549376,0.0349121,0.0455515,0.0309492,-0.0943143,0.155521,0.0498297,0.0116125,-0.0422111,0.141195,-0.0645668,-0.0391708,0.107453,0.120281,0.0421149,-0.173473,-0.118636,-0.110192,-0.00570374,-0.0676841,-0.0801169,0.0244519,0.0301821,-0.0488429,-0.143952,0.0631944,0.0805059,0.114924,
cant,-0.120518,-0.0410703,-0.0321787,0.0545667,-0.069366,0.101827,0.0210187,0.0272965,0.0834624,0.0310586,-0.0370614,-0.0671204,0.132373,0.0879575,-0.00333709,0.00945845,-0.125172,-0.0322096,-0.0632897,-0.0491497,-0.0164191,0.123727,0.0285637,0.0939263,0.0798674,-0.00531301,0.114122,-0.0410608,0.0376533,0.106306,0.0556995,-0.0392622,0.00377131,0.0815367,0.107315,-0.0976825,0.0475198,0.0341193,-0.152487,0.106468,0.126182,0.0560613,-0.218432,0.0242161,-0.0173232,-0.0493537,0.0994919,0.0182855,-0.0643034,-0.0869264,0.0205472,-0.0584581,0.0679753,0.106559,0.214778,0.169244,0.0487986,-0.179997,0.0165318,0.126093,-0.196334,-0.17553,-0.149125,-0.0279829,-0.00868696,-0.0191124,0.0341583,-0.0312163,-0.0237148,-0.00892425,-0.0536898,-0.0569043,0.0227143,-0.150363,-0.0981713,-0.07342,0.0686465,0.0578391,-0.0511229,0.139432,0.0264771,0.0405443,0.0428134,0.0334901,0.164674,0.0772156,-0.0597875,-0.0445644,0.24625,-0.103226,0.124112,0.127316,0.0802211,0.0195321,0.0455937,0.0368281,-0.042919,-0.137995,-0.00424228,0.143933,-0.00716778,0.119408,0.0935259,0.0619749,-0.0842786,0.156101,0.0985429,0.0672945,-0.0176313,0.059336,-0.105749,-0.0608206,-0.00625498,-0.10898,0.0564287,0.07267,0.0190176,0.0205002,-0.204892,0.069148,-0.0559725,0.00492556,-0.00569057,-0.0191828,-0.0254972,-0.006139,-0.00461956,-0.0436,
got,0.0180526,-0.143613,0.0431427,0.111644,0.0915335,0.0829657,0.0507331,0.0360839,0.0437221,0.0520873,-0.0427733,0.0424743,-0.197516,-0.0656345,-0.0416162,0.0590078,0.131383,0.0688786,-0.0237219,0.0876125,0.13224,0.0102384,-0.0193727,-0.102198,0.0506876,-0.0209372,0.0710174,0.00167026,0.0615443,0.0321589,-0.122335,0.0622337,0.152834,0.0170456,0.121825,0.0912274,-0.00480205,-0.0958252,-0.0890242,0.0409092,0.0543473,-0.1265,0.0479256,0.00642338,0.0527597,0.047116,-0.0183778,-0.0606036,-0.0048247,-0.140021,-0.0738994,0.0859049,0.100303,-0.0992475,0.140084,0.130887,-0.130014,-0.143725,-0.144503,-0.0538451,0.111211,0.047585,0.0868024,-0.0331534,0.0515743,-0.00329524,0.0663505,-0.114109,-0.0513312,0.00941396,-0.141431,0.0152153,0.144422,0.0867865,-0.211534,0.0169991,-0.0110178,-0.0892018,-0.013835,0.0152605,-0.0389392,-0.0371949,-0.126273,-0.117296,0.00362844,0.0563421,0.011772,0.0199911,0.0788007,0.0423724,0.012928,0.028315,-0.0341912,0.0951075,0.101708,-0.114106,0.00557847,-0.152635,-0.0194649,-0.106583,0.0898949,0.0552195,-0.020746,-0.181437,-0.0590019,0.0313453,0.122852,-0.0717476,0.111557,0.085345,0.156613,-0.0735733,-0.00295489,0.0542544,-0.138994,-0.0230214,-0.0204978,0.0651362,-0.00258264,-0.0101777,-0.174822,0.0848489,0.0591294,0.171681,-0.0587196,-0.198459,0.000525388,0.172716,
ambien,0.0125526,0.122819,0.0190491,0.0254996,0.107386,0.0987156,-0.118393,-0.00420332,0.0517366,0.0979981,-0.0981598,0.117353,-0.135712,-0.0855016,-0.0600781,-0.0729585,-0.0771335,3.88411e-05,-0.196301,-0.0383968,-0.0117021,0.149785,0.209991,-0.0714239,0.0400629,0.0983371,0.0666648,0.130295,-0.143811,0.0463633,-0.133379,-0.0487991,-0.000197066,-0.101482,0.0730292,0.0380094,-0.0458486,0.0355408,0.0343376,-0.0444406,0.111968,-0.027858,-0.124952,-0.00292158,0.0370936,0.0146687,-0.0236664,0.0373107,0.083273,0.153247,0.0703656,-0.187345,0.17128,0.0627942,0.123911,-0.0345841,-0.150037,0.162214,-0.0495752,0.0473191,0.00721361,-0.050372,-0.122055,-0.073471,0.13954,-0.129571,-0.11723,-0.0737822,-0.0129686,-0.032535,0.12631,0.12274,0.0705827,-0.0491094,-0.0332186,0.134898,-0.0261332,-0.105665,0.0144781,0.0292281,-0.0883043,0.0276643,0.00158911,0.040759,0.0161288,0.0606961,0.00807778,-0.018457,0.025715,-0.0732585,-0.0969762,-0.0623706,0.0658244,-0.107605,-0.111933,-0.110948,-0.120439,-0.0967338,-0.0584929,0.0881776,0.0811627,-0.0993527,-0.112354,-0.0631218,-0.0956812,-0.0192565,-0.106287,0.0421281,-0.0244993,0.129088,-0.0406703,-0.0100828,0.00460565,-0.0551613,-0.0498472,0.0423971,0.0522846,0.0318084,-0.211054,-0.141438,0.0221534,-0.18999,0.00365245,0.0360109,-0.027037,0.041477,0.0187078,-0.0620493,
vicodin,-0.0278099,-0.102011,-0.125166,0.0120424,0.0508285,-0.111562,-0.0931462,-0.100653,-0.0230564,0.0503528,0.00695124,0.0559363,-0.0195782,0.0431487,0.0228537,0.0361724,0.0543302,-0.0437784,0.0721171,0.0353921,0.0524095,-0.0120689,-0.00270815,-0.0205296,0.00884743,-0.153774,-0.0653688,0.146451,0.0780569,0.0418195,-0.157017,0.039368,-0.00983347,-0.112562,-0.244028,-0.0651399,0.134094,0.112644,0.000340341,-0.0397695,-0.0913247,0.018278,-0.114373,0.113193,0.0777944,-0.0592642,0.0134034,-0.0884234,-0.0243105,-0.0860797,0.0285383,0.060764,0.0101319,0.13943,0.0481414,-0.0537058,-0.0929504,-0.042258,-0.0628388,0.0510621,-0.0164388,0.153174,0.0849619,-0.00250601,0.0340074,0.0682147,-0.0815976,0.0722354,-0.123939,-0.119542,0.0216455,-0.135541,0.0877762,-0.00735108,-0.123347,-0.0264868,-0.0208223,-0.0989922,0.0346399,0.0713466,0.103289,-0.0290491,0.0213168,0.108095,-0.0514257,-0.0554561,0.0656091,0.0761911,-0.0850901,-0.0184963,-0.0307588,0.0122916,0.215546,-0.0940409,0.15309,-0.0757897,0.0404023,0.102569,0.0567992,-0.150941,0.160616,-0.0185292,0.00571967,-0.000467211,-0.071897,0.0362029,0.0661218,0.290063,-0.0786229,-0.216074,-0.101065,0.0140485,-0.0346876,0.115341,-0.142761,0.0295528,0.0312291,-0.0812085,0.121742,-0.0657839,0.0286066,-0.016527,0.0316986,0.101347,0.135473,-0.00975224,-0.143201,-0.0956922,
pain,0.0970755,0.100895,0.0676118,0.00420775,-0.0838494,-0.0679812,0.0209014,-0.0108285,-0.0585596,0.0924863,0.0414652,0.0352927,-0.0581331,0.0295569,-0.124126,-0.182591,-0.00704381,0.0700729,0.111982,0.0456652,-0.0741888,0.157302,-0.0958671,0.013505,0.0985679,0.102624,-0.0669257,0.0525227,0.173379,-0.0578338,0.129744,0.0448472,-0.0412471,-0.145337,-0.107354,0.178254,0.0541016,-0.0197012,-0.113835,0.00327895,-0.041902,-0.043414,0.0248451,0.103413,-0.0141165,0.0168261,0.0453548,-0.148072,0.128681,0.0287032,-0.0161217,-0.00536366,-0.0245081,0.0491555,0.0218138,-0.0921945,0.000387528,-0.129361,0.156054,0.095015,-0.058457,-0.0394448,0.0038715,0.0217098,0.0487642,0.112262,0.0316557,0.0964828,-0.0325881,0.0186807,-0.103986,0.0251467,0.0498804,0.100332,-0.0561281,0.085412,0.000577763,-0.0529901,-0.0263963,-0.132769,-0.0243539,0.023732,0.0488968,-0.245447,0.0788567,0.0458121,-0.0185269,0.0362105,-0.0283944,-0.0491605,-0.103733,-0.025485,0.108602,0.108401,0.0231313,-0.195242,0.119792,-8.61882e-05,0.127675,0.149625,-0.0294993,-0.0589513,-0.0912116,-0.0960905,-0.0225167,0.0366474,-0.0552892,0.159643,-0.101437,-0.0947681,-0.154606,0.190046,-0.157128,-0.0561215,0.0613522,-0.0511595,0.00725921,0.0301178,-0.0718483,0.0126611,0.224402,0.0411517,0.115149,-0.0458674,0.125706,-0.0913571,0.00618846,0.00708727,
ive,-0.0999965,-0.112168,-0.0617324,-0.0405766,0.0382254,-0.102592,0.0305252,0.0608609,-0.0835194,-0.0694227,0.102382,0.011969,-0.165257,0.0390048,-0.0412677,-0.112407,0.139205,0.156269,0.19631,0.0639516,0.0700773,0.0389966,0.0673738,-0.0271434,-0.0762233,0.0431574,-0.0229235,0.104954,0.0400491,-0.0211113,0.0529427,0.0212632,0.0210357,0.010092,0.0637501,-0.00538772,-0.00572978,0.105171,0.0210482,-0.0570885,0.105523,-0.0923221,0.0394165,0.0141848,-0.058964,0.128893,-0.0422854,0.188665,-0.10658,0.102416,-0.163961,-0.0082306,0.0366386,0.0720394,0.144895,-0.0738086,0.11106,0.148879,0.0142459,0.0395522,-0.131357,-0.0328608,0.0024975,0.0357313,-0.193467,0.0397025,-0.0250256,0.0101091,0.113647,-0.0474314,0.0783285,0.222259,0.0735103,-0.0545772,-0.0844321,-0.103042,0.139236,-0.0655812,0.0051809,-0.0668606,0.0676083,0.0217886,-0.109395,-0.116675,0.0197073,0.102951,-0.0798292,0.0197636,0.0548155,0.122982,-0.0896085,0.0602289,0.0339011,-0.0482848,-0.0426086,-0.145035,0.241892,0.0140106,0.051292,0.0020718,-0.0288118,0.0056703,0.107804,0.00496795,0.0343425,-0.101448,-0.0982608,0.119808,-0.00187067,0.0531439,0.175598,-0.0744943,0.107454,0.0998664,0.0498621,-0.0539409,-0.033907,0.0939706,-0.0938899,0.1147,0.025125,0.0781231,-0.0504621,0.0025668,0.0403317,-0.0459203,-0.0194573,0.20265,
still,0.0303956,-0.0177453,0.0289431,-0.0335707,0.0631541,-0.109833,-0.205819,-0.159018,-0.0842237,0.0963852,0.0860815,-0.040207,-0.0184344,-0.16464,-0.0126687,0.0216153,-0.0303535,0.149482,-0.00609444,-0.0727112,-0.08791,0.0686796,-0.102001,-0.137078,0.061974,0.152214,-0.00407437,-0.0532238,-0.00350061,-0.0203806,-0.13232,-0.014964,0.016435,0.0238299,-0.013774,-0.158981,0.040321,0.0264606,-0.0634516,-0.0278799,0.0588162,-0.0413099,-0.051793,0.104418,-0.0452101,-0.00224251,-0.0871608,0.105439,-0.11691,-0.0705883,0.0808855,-0.130315,-0.0669829,0.0460194,-0.0373176,-0.0885263,0.0381983,-0.0362441,-0.0377236,0.177361,-0.0987023,0.100795,0.0121128,-0.119754,0.0531619,0.0621343,0.0911651,0.0220437,0.0133335,0.0947298,-0.0516088,0.105229,-0.0165877,-0.130294,0.0811308,-0.0192357,0.0897805,-0.0502024,0.0413376,-0.0460109,0.11177,-0.0714304,-0.0532675,-0.00561772,-0.146143,0.0584258,-0.042545,0.0318477,0.183322,0.0698474,0.023819,0.246516,-0.0378842,-0.00597542,-0.0606776,0.130685,0.0376978,-0.0458456,0.0945044,0.0426034,0.0153884,0.111412,-0.0654332,0.105997,0.147764,0.103115,0.123287,-0.0828773,0.104988,0.041001,-0.0683137,0.0752912,-0.0186308,0.115956,-0.0327471,0.160112,0.0578684,0.0414316,0.0748112,-0.0115336,-0.100268,-0.131792,0.0183867,-0.168861,0.050348,-0.00903115,0.242495,-0.0653257,
dont,0.0460504,0.117291,-0.00815928,-0.0904142,-0.0170275,0.0842575,-0.039815,-0.087873,0.191978,-0.0376941,0.00871996,-0.159693,-0.0870676,0.0224729,0.0481514,-0.0392826,-0.0840954,0.0557728,0.124018,-0.131314,0.054338,0.0569552,0.00915153,-0.0965609,-0.118868,-0.0407249,-0.0228828,0.156955,-0.0401039,-0.0294247,0.0337018,0.08638,0.0228615,0.0808684,0.0484528,0.127622,-0.0928365,-0.0204832,0.0202199,0.144507,-0.109561,0.04834,0.0406448,0.110757,0.00148273,0.0743959,-0.0226026,0.0506903,0.0076906,-0.0814606,0.00247878,0.0753196,-0.0641487,0.0982134,0.100043,-0.123272,-0.153572,-0.0380344,0.0784769,-0.022227,-0.0540639,-0.0255753,0.143092,0.0441964,-0.0370286,0.000987732,0.0271835,-0.0637437,0.0725732,0.0949413,-0.0692338,0.171185,-0.100884,0.145045,0.0327529,0.0468024,-0.019944,-0.00262934,0.0524521,0.0747263,-0.0477916,0.141278,-0.112361,0.0212827,0.0293828,-0.111078,-0.0339006,-0.0927665,-0.052737,-0.0816108,0.0547117,0.0271944,0.065161,-0.0647123,-0.055562,0.0589986,0.0226096,0.0801774,-0.157229,-0.138457,-0.00709532,0.18123,-0.0167188,-0.031231,-0.0617524,0.209045,-0.106391,0.124203,0.0683935,0.0915041,-0.142503,0.0117481,-0.0911399,-0.240498,0.0442272,0.100738,0.0630516,-0.198329,-0.0640188,0.0301003,-0.178636,0.0778662,-0.0446719,0.0138241,0.116625,0.0594398,-0.0119863,-0.100293,
makes,0.0460908,-0.0265325,0.0579462,-0.0551931,0.0480229,-0.0383023,-0.0728308,0.0623043,0.0618692,-0.0378184,-0.117325,0.0294199,-0.177322,0.0223682,0.101689,0.0543422,0.0176233,-0.0338716,0.0938042,-0.00104117,-0.0765337,0.131621,0.0485221,0.0809931,0.0743626,0.0717319,-0.0109635,-0.0104781,-0.0148723,0.0528775,0.0993809,0.109798,0.0868289,-0.122042,0.0322347,0.00667073,-0.070873,0.0200516,-0.250475,-0.13399,0.0176907,-0.0574186,-0.0620743,-0.222071,-0.0591596,-0.0643437,0.0169124,-0.0589154,0.145074,-0.0126409,0.0628327,-0.0383285,-0.0685268,-0.0186063,0.00744124,0.117237,-0.0757035,-0.186995,-0.0441259,-0.109636,0.0960707,0.0566485,-0.0853457,0.0294141,0.00470619,0.0329752,0.0776206,0.0916688,0.0410673,0.0706787,0.0371989,0.0194294,-0.0838869,-0.038978,-0.0626194,-0.0761277,0.0210948,0.191377,-0.00882649,0.0924968,0.0667464,-0.0771719,-0.00138395,-0.0828493,-0.0968445,-0.0663255,0.022423,-0.032307,0.048337,0.0700061,0.0422095,-0.0469647,0.00817177,0.0815683,-0.0675028,-0.168469,0.0892479,-0.120495,0.173086,0.0318969,-0.0608972,0.0859144,-0.0859955,0.105942,0.167698,-0.0236053,-0.0102295,0.101293,0.14802,0.115671,-0.0486969,-0.276457,0.0516497,0.0480477,-0.0565153,-0.00109755,-0.0249846,-0.124301,0.100044,-0.182404,-0.0588946,-0.0701347,0.0645362,0.108941,0.0360208,0.0164884,0.146927,0.114441,
day,0.0207578,-0.0695471,0.0563633,-0.0206198,-0.026003,-0.0904694,0.0286952,-0.0366087,-0.00619642,-0.13327,0.119421,-0.15405,0.0754607,-0.0687503,0.0172082,0.0416039,0.148961,0.0749603,-0.0322206,-0.118804,0.126648,0.00962219,-0.0735449,-0.165123,-0.0995404,0.139677,-0.104482,-0.0401542,-0.004259,0.0957061,0.0704984,-0.190515,0.0810871,-0.0398964,-0.0796416,0.0277837,-0.151739,-0.0732585,-0.0195159,-0.0664683,0.0340255,-0.0941401,-0.233464,-0.104345,0.168842,-0.0567238,0.000268065,0.0653967,-0.00045256,-0.00141646,0.0567825,0.0233914,0.129255,-0.0520778,0.0295174,-0.0611118,0.0746491,0.0462869,-0.0706018,0.104039,-0.0503138,-0.15869,0.177526,-0.0334215,0.0798429,-0.127024,-0.170782,-0.0446574,0.1697,0.0642665,0.00648373,0.0679951,-0.00499644,-0.0974246,-0.0770842,0.150757,-0.103205,-0.00322214,0.0146759,0.0749249,-0.0463427,-0.0996221,-0.0543477,-0.0887842,-0.11567,0.096581,0.0710746,-0.0723814,0.104566,0.0916735,-0.113334,-0.108555,0.041886,0.127766,0.0338183,-0.00920041,-0.0641137,-0.194546,-0.121782,0.00342545,-0.0324778,0.0440169,-0.0510076,-0.0102918,0.0306,-0.0353001,0.0812797,0.0668041,0.0633723,0.0544205,-0.0954128,-0.168697,0.0305373,-0.0594237,-0.00537078,0.00245836,0.191631,0.0475955,-0.107134,-0.0681729,0.0146794,-0.0220765,-0.0028932,-0.0604795,0.0288178,-0.0563422,0.0519432,0.00733419,
taking,-0.0590466,0.176092,0.00631503,-0.117342,0.0966851,0.138132,0.0796068,0.0125266,0.0518587,0.010391,0.00425314,0.0106579,0.187902,-0.0540865,-0.0106009,0.0318659,-0.0229666,-0.00998906,0.0190076,0.0688227,0.0196606,0.0131164,0.0263736,0.0732093,-0.0871905,-0.0249537,-0.133733,-0.100566,-0.0298573,0.189239,-0.0952017,0.164368,0.0309736,-0.0552965,0.0323096,-0.120462,-0.032746,-0.0186747,0.088375,0.106139,-0.00530847,-0.0534383,0.00253508,0.0912649,-0.0294486,0.100586,-0.110778,0.0155709,-0.146044,0.117609,-0.0981778,-0.0248467,0.0234095,-0.055841,-0.0297832,-0.0994275,-0.117921,-0.0130706,-0.165905,0.0457796,0.129271,-0.0907456,0.260446,0.0228856,-0.189583,0.00741921,0.0369908,-0.00390122,-0.000998141,-0.0821209,-0.0248148,0.0810096,-0.105271,0.0211298,-0.0911311,0.0071431,0.0133693,0.145466,-0.0272311,-0.169074,0.140214,0.079334,-0.0329632,0.0553165,-0.115018,0.089354,0.0597124,0.0454798,0.0992332,-0.115751,-0.0262726,-0.0259735,0.139131,0.0628974,-0.147284,0.0386092,-0.181717,0.054815,0.0399106,0.035771,0.0359582,0.0669149,-0.0171555,0.0463791,-0.0408277,0.0142849,0.0521256,0.0358917,0.0544238,-0.0732567,-0.0758783,-0.082848,0.264856,0.0930316,-0.038435,0.0206951,-0.0590105,0.0523277,0.0448164,0.00124504,0.212808,0.0150188,0.0752875,-0.0107568,0.111909,-0.069131,-0.0104008,0.00109491,
get,0.122025,-0.0178704,-0.0756776,0.0920088,-0.108616,0.0126496,-0.0668769,0.034609,0.00990365,0.127638,-0.0945034,0.123062,0.0725206,-0.0100504,-0.0597561,-0.0266622,-0.0338912,0.0924544,0.00383114,0.0411827,-0.103581,-0.108716,0.0940171,-0.0378992,0.0340979,0.0300277,-0.0626267,0.0829244,0.132261,-0.0112789,0.170306,0.0290479,0.0927925,0.167544,-0.0241847,0.0348429,0.0282806,-0.0248659,0.203433,-0.000865122,0.011866,-0.0508051,-0.131888,0.0478735,-0.0506805,0.00970915,-0.059365,0.195336,-0.0702355,-0.0633016,0.296527,-0.0397639,-0.0655434,-0.047581,0.0707645,-0.0419366,0.0409077,0.0298449,-0.113542,0.113876,0.00225551,0.0283404,0.0271149,0.0598512,0.0282489,-0.0235344,-0.0895622,-0.0530578,0.0342528,0.00601194,-0.0218088,0.0550177,-0.0283558,-0.0525684,0.0873935,0.0079454,0.138797,0.000681316,0.0861765,0.0989476,0.0517842,0.0996921,0.0319078,-0.18105,0.204672,-0.119249,0.133097,-0.0732549,0.167503,-0.00239333,0.114835,-0.035893,-0.0489162,-0.0178166,-0.0214164,0.0218055,0.0391743,0.0456236,-0.0551976,0.0048412,0.094926,0.0268879,-0.102977,-0.116267,0.00504932,-0.0190228,0.0499324,0.0299653,0.0440339,0.0393655,-0.1419,0.0136899,0.144381,0.0402495,0.195858,-0.0996456,-0.165416,0.0793255,0.103909,-0.0549607,0.0428465,0.00222799,-0.100216,0.0939336,0.0522113,-0.234782,-0.00558349,-0.0595727,
tramadol,-0.0195004,0.119428,-0.0660184,-0.0557232,0.00774885,-0.0132118,-0.0244987,-0.142237,0.018103,-0.0303279,-0.0827287,0.0507136,0.0809792,0.0105701,-0.0196879,0.0732737,0.145185,0.0286212,0.138967,-0.0741526,0.0433117,0.162199,-0.0805842,-0.0300063,-0.00657095,0.0256424,-0.0396345,-0.107223,0.00756794,0.0971937,-0.0583385,0.101726,0.0373652,-0.0401146,0.0364111,-0.00244259,-0.111287,0.121226,0.107926,0.00260167,-0.0355532,0.0166281,0.0900789,0.016462,0.0232551,0.0174476,-0.112873,0.154482,0.031504,-0.00211132,0.142105,0.0149726,0.16525,0.128607,-0.0214286,-0.0690049,-0.0227562,-0.023653,-0.124425,-0.0252598,-0.000240051,-0.18774,-0.0819288,0.0303068,0.0674537,0.119012,-0.1141,0.0801154,-0.00131098,0.0747134,0.133296,-0.0128844,0.0850591,-0.00559831,0.0272311,0.199666,-0.00346323,0.113986,0.0520139,-0.043183,-0.0142275,-0.0993928,0.156775,0.0661296,0.0812879,0.0201055,-0.0237895,0.00574426,0.131853,0.0846863,0.231472,-0.00797762,0.05082,-0.0769707,-0.0883806,-0.128852,0.0875844,0.0939418,0.0158166,0.0228248,-0.058396,0.0306006,0.0937313,-0.0742477,0.0478218,0.268082,-0.0754018,-0.0235883,0.058437,-0.112716,-0.0217262,0.0572164,-0.174049,-0.00309135,-0.0170166,0.0057273,0.0563868,-0.0432065,0.0845741,-0.183128,-0.00241606,0.135466,-0.172188,0.0481891,-0.155705,-0.0981994,0.0117035,0.10794,
night,-0.0440528,-0.131726,-0.146622,-0.128543,-0.0884216,-0.15726,0.0164441,-0.139576,-0.000560931,0.0856137,0.161715,0.127866,-0.0537376,0.0724945,-0.0948614,-0.0101147,0.0570472,-0.0111663,0.163816,0.038097,0.0490507,-0.00401692,-0.0742002,0.0781897,0.0337866,-0.0300164,-0.000200549,0.0527579,0.0222781,-0.0798575,-0.0855005,0.0196369,0.0871414,-0.19443,0.0250657,-0.014383,-0.0851207,0.0442786,0.040168,-0.0720109,-0.0720235,0.110209,0.145098,-0.00462667,-0.0162715,0.0644446,-0.132134,-0.0713252,0.18129,-0.00847492,-0.141854,0.0023257,-0.0514499,0.0681867,-0.0529183,-0.0827851,0.147337,0.0107749,-0.0529812,0.0113574,-0.0720458,-0.0644149,0.0349114,0.0596358,-0.10833,0.0433016,-0.00125591,0.0461751,0.0988019,-0.132352,0.065707,0.0414915,-0.0931229,-0.00648503,-0.137762,-0.147535,-0.131362,0.0128116,-0.141599,-0.134738,0.0482761,0.027959,0.0250389,0.0459234,0.174904,0.0136803,-0.125102,-0.0219754,0.0415233,-0.0767179,-0.0570823,0.105097,0.10578,0.164212,0.117863,0.141994,-0.112443,-0.0864932,0.0940854,-0.0121614,0.0552437,0.109255,-0.110804,-0.0789259,-0.00342329,-0.0642541,-0.00349849,-0.0275289,-0.161746,0.0132528,0.00940241,0.088038,-0.0531344,0.030499,0.107457,0.110117,0.124974,-0.0608313,-0.0576706,-0.0378026,-0.110101,0.11483,-0.0232289,0.0302178,0.0184135,0.192012,-0.0547057,0.0225646,
morphine,-0.0817731,0.133275,-0.00767079,-0.0435801,0.0728965,-0.0949445,-0.259552,0.0548158,0.13245,-0.0118121,-0.140984,0.160972,-0.121688,0.172359,-0.094576,-0.00917073,-0.0278629,0.0639629,-0.111255,0.0525752,0.0991558,-0.0212536,-0.0786956,-0.0144141,0.0111947,-0.0251088,0.0642659,-0.0322417,-0.0282827,-0.132887,-0.0991119,0.0248712,0.120374,-0.0327166,0.0921068,-0.0441944,0.0258356,-0.115967,-0.0669537,-0.00814402,0.0192225,-0.0971812,-0.106872,-0.00433914,-0.189058,-0.050921,-0.153583,-0.122392,0.0342186,0.0741144,0.0821111,0.0815024,-0.0833489,0.0429035,-0.0224469,-0.0256745,0.0474979,0.176423,-0.127062,0.0178667,-0.161981,-0.0432416,-0.0162678,-0.133346,0.00468085,0.0418043,-0.0145734,-0.0364593,0.0117538,0.0116162,-0.1079,-0.0325583,-0.104034,-0.0420506,0.0263324,0.0658171,0.0206063,-0.0215545,-0.0568793,0.0230875,0.080784,-0.197997,0.0710702,-0.197088,0.0906346,0.183537,0.089349,0.132521,-0.0531565,-0.010776,-0.0940553,-0.0450033,0.0669884,-0.0760597,0.0302159,0.137448,-0.0486475,0.0554081,0.101946,-0.105063,0.0629172,0.0883932,0.134138,0.0527438,-0.0424391,0.0155943,0.14941,0.0157919,-0.00580211,-0.110118,0.0370731,-0.0969734,0.122313,-0.1251,0.0680383,-0.0262071,0.0245186,0.117876,-0.000430422,-0.0496739,-0.100644,-0.0224186,0.000534954,-0.0051798,0.0352751,-0.0509609,-0.0987997,0.0888705,
valium,-0.0445786,0.0079588,-0.0566211,-0.0509774,-0.179752,-0.0685687,-0.101245,-0.0739757,0.0996639,-0.0921313,-0.0832499,-0.00699092,-0.0285306,-0.045999,0.00703169,-0.0322036,-0.00350188,0.10537,-0.127366,0.0757326,-0.00737922,-0.147233,0.0546611,0.0680012,0.0506107,0.0620722,-0.0541279,0.0443695,0.191687,-0.00740318,0.12624,0.0146322,0.00892512,-0.0817688,-0.104104,0.0367507,-0.0200573,0.159279,-0.0441257,0.044193,-0.0628765,0.0957003,0.2273,0.0334423,0.02921,0.189719,0.127696,-0.0287016,-0.0280177,-0.0186156,0.0721062,0.0311096,-0.0638927,-0.0379449,0.0373654,-0.0489508,-0.0470523,-0.0259836,-0.0553958,-0.0160897,0.0127079,-0.141251,0.0114113,0.0271136,-0.133146,0.113771,0.0106748,-0.0165876,-0.0355627,0.0290755,-0.0686646,0.0851116,0.0832635,-0.0298825,0.131401,0.0756719,-0.0946498,-0.200542,-0.04942,0.0330598,0.0488526,-0.144255,0.0208804,-0.0225925,0.00736977,-0.0142787,-0.14891,0.0994458,-0.127762,-0.0805786,-0.0703162,-0.0780458,-0.0345958,-0.0604944,0.121601,0.0204781,-0.00238416,-0.0463773,-0.0526217,0.0180062,0.0466313,0.118632,-0.0180979,0.271576,0.115801,0.118486,0.123864,0.0590198,-0.00559873,0.0268076,-0.139231,0.0564447,0.115618,-0.0399622,-0.00799971,0.0484558,-0.118665,0.052673,-0.118915,-0.0647542,0.231494,-0.0974881,0.0452649,-0.00404657,0.0845223,0.00594739,-0.0834944,0.186868,
even,0.117617,0.101106,-0.113587,-0.00508329,0.188308,0.0557127,-0.0735842,0.0344003,-0.112059,-0.064552,-0.0320504,-0.111577,-0.0802008,0.140513,0.14798,0.0392227,-0.0547843,0.100175,-0.0393137,-0.00519055,0.00401274,0.0284,-0.180611,0.210393,-0.163393,-0.0609072,-0.0619903,0.0811854,0.0577608,0.00859404,0.119092,-0.0893586,0.0171356,-0.132181,-0.000405928,-0.0581815,0.121612,0.0305412,0.0561094,0.0875437,-0.235441,0.0451055,-0.160362,0.168223,-0.0107029,-0.0188856,0.065835,0.0582575,0.124655,0.0633553,0.117814,0.00045841,0.122721,0.119427,0.0588836,0.18001,-0.0763158,0.0243265,-0.0583973,0.0870836,-0.0199065,-0.0626703,-0.00757845,0.0308959,0.0117945,0.0086378,0.0423735,0.0655503,0.0133935,-0.214397,0.0047745,0.134236,-0.101162,0.0481612,0.0180592,0.0146123,-0.0834744,-0.120427,-0.0504184,-0.0241967,-0.0339954,0.094258,-0.104442,0.0939843,0.00050411,-0.0548565,-0.0529865,-0.0325177,0.0182272,0.00246882,-0.0670469,0.0254605,-0.137248,0.000664467,0.143877,-0.0852782,0.12651,0.0870404,-0.0364845,-0.0425001,-0.023196,-0.243686,0.0230889,0.0748116,0.0198301,0.0840963,0.0746334,-0.0510186,-0.0504341,0.0281291,-0.00500508,-0.0723248,-0.0455232,0.0327678,0.0884556,0.0549923,-0.0276935,0.00955844,0.0274251,-0.0159751,0.0592202,-0.100136,-0.0194447,-0.129546,0.128021,0.0926612,-0.0533862,0.0453224,
shit,0.194061,0.080709,-0.00600309,0.0311423,0.195976,-0.00715283,-0.00322839,-0.0407523,-0.0293523,0.077114,-0.0420047,0.0648039,0.0483865,0.0812053,-0.00794249,0.0971565,0.0917025,0.0703768,-0.0910134,0.00875691,0.135049,0.0564093,0.0657912,0.100572,0.00166938,-0.0805985,-0.11439,-0.0853518,0.0404471,-0.0501133,0.0194235,0.0812318,-0.0648908,0.0449364,-0.0435021,0.0726061,0.0428119,0.0319552,-0.0459691,0.0539638,0.140778,-0.0196918,0.08789,-0.0123895,0.0562009,0.0778619,-0.132226,0.00787676,-0.0115736,0.03573,0.188494,-0.0868738,-0.0347855,-0.148439,0.0487188,0.048138,-0.138667,-0.0890642,0.149887,-0.0534667,-0.0740557,-0.0605069,0.040358,0.125462,0.0203489,-0.0977947,-0.0812625,-0.00501606,0.0492709,0.0540903,0.0842195,0.138835,0.0183638,-0.123445,-0.0605005,0.0497839,-0.0390752,0.0985102,0.161243,0.089325,-0.0130488,-0.0100982,0.110344,0.0650084,0.082377,-0.0840788,-0.16304,0.11234,0.0396944,-0.0341298,-0.0387921,0.138381,0.140127,-0.114374,0.104949,0.0462277,0.0428538,0.0515946,-0.00922694,-0.010469,0.11677,0.172064,-0.10019,0.110801,0.0360788,-0.052987,-0.0424804,0.053979,-0.0867037,-0.0714696,0.0366034,-0.067134,-0.00554979,0.0363767,-0.104866,0.0931547,0.100088,-0.078516,-0.0659525,0.16143,-0.117721,0.209782,0.187704,-0.166403,-0.0403074,0.0890689,-0.03537,0.096646,
one,-0.0207724,-0.0319354,0.0621834,0.0968151,-0.0487683,0.0702249,-0.0155848,-0.137091,-0.0209854,-0.12131,-0.0250767,0.0461563,-0.188126,-0.143878,-0.0329996,0.0865763,0.00882784,0.0136466,0.0234925,0.033038,0.103238,0.0953428,0.0430182,0.0912958,-0.120678,-0.0156914,0.0376311,-0.0108346,-0.170998,-0.0328364,0.118801,0.157248,0.0620051,-0.000746963,-0.0892276,0.00277387,-0.113425,0.0539881,0.124015,0.167205,0.0305719,0.017922,-0.0868383,0.0264253,0.0853015,-0.0706634,-0.060391,-0.0199065,0.26443,0.0486636,0.0524956,-0.0241446,-0.109978,-0.00922957,0.199869,0.115395,0.032763,-0.0731562,0.191577,-0.0973831,0.00431119,0.0597062,0.154609,-0.131237,0.0596395,-0.0593368,0.0024337,-0.177799,-0.0771473,0.0953415,-0.109269,0.0295908,0.0104917,0.130219,0.011098,0.041694,0.00511701,-0.0311115,0.0618174,-0.152865,0.0990228,0.0258287,0.161332,-0.0242282,0.0318871,0.0252546,0.184222,0.0276316,0.061099,-0.189871,-0.0419854,-0.0724213,0.0822089,0.0305739,0.096925,-0.0567292,0.00477617,-0.0495248,0.138513,0.0311081,0.0383003,0.0444985,0.0754206,0.000682064,0.0252261,0.0254213,-0.0450153,-0.0464421,-0.00062798,-0.099203,0.158488,-0.0476661,-0.0765759,0.0595331,0.0516637,0.0914812,-0.0452544,-0.166859,-0.0151682,-0.0822963,0.105328,-0.0035035,0.0135555,-0.0770935,0.0993953,-0.0598332,-0.0816869,-0.022759,
today,-0.031315,-0.00197618,-0.156435,0.0042648,0.0786736,-0.173322,0.0821708,-0.0371135,0.0409205,-0.132029,-0.0237089,-0.0198147,-0.121016,-0.103797,0.0792095,0.0772179,0.101508,-0.0137572,0.0234022,-0.097414,-0.0658913,0.131169,0.0657351,0.0943269,0.0372017,0.0286093,-0.0647302,0.0540878,0.0303581,-0.0692661,-0.0666977,0.00496808,-0.0861927,0.110354,-0.127229,0.140649,0.0725742,-0.00305177,0.0522959,-0.119282,0.000521704,-0.0847246,-0.117464,-0.0846104,-0.0623713,0.125145,0.0747481,0.0323783,-0.00117434,-0.0792572,-0.0557275,0.107978,0.164969,-0.110297,0.0627858,-0.0219908,0.0084909,-0.026765,-0.0469761,0.00719334,-0.0137318,-0.0603892,0.0999838,-0.143618,0.0287946,0.132994,-0.0120863,0.0873899,-0.0471007,0.0859384,-0.0225547,0.065895,-0.0955708,0.0942768,-0.0418503,-0.00715999,0.147394,0.111906,-0.103422,0.08349,-0.0706644,-0.0941022,0.112607,0.0348865,-0.0484769,0.0933005,0.0535493,0.218306,-0.0886097,-0.180513,0.113926,0.129991,0.0906856,-0.00657392,0.00207751,-0.0232149,0.0493313,0.0912559,-0.116817,0.197786,0.0451959,-0.0631533,-0.100352,0.0907741,-0.0857557,0.00149545,0.113556,-0.0436299,0.0224572,0.0862314,0.136359,0.0857885,-0.064877,0.00646156,-0.128894,0.104365,-0.151163,0.0543991,-0.0253601,-0.0105234,0.0191534,-0.0503315,-0.131838,0.00484146,0.211012,-0.0609111,-0.106671,-0.0068017,
really,0.0681007,-0.0794004,-0.0247071,-0.172983,0.026411,-0.156087,0.302837,0.00310873,0.123041,-0.0238913,-0.130649,0.0289719,-0.0124427,-0.017228,-0.0618888,-0.146142,-0.0907353,0.0299072,-0.0762327,-0.0989944,0.0155319,0.0201242,-0.141517,-0.131359,-0.0484177,0.0616166,0.0532202,-0.0857249,0.0618587,0.163302,0.0476987,-0.0017458,0.12717,0.0567082,0.124352,-0.0183109,0.0882864,-0.0121258,-0.136299,0.0550751,-0.0135373,0.164148,-0.0286291,0.00646878,0.0563027,0.156371,-0.0552227,-0.115855,0.00397677,0.000715045,0.0590975,-0.0130351,-0.14674,0.0369375,0.0393139,-0.0414497,0.0488818,-0.011102,-0.100365,0.118943,-0.134044,0.0359223,0.10954,-0.0188622,-0.0276173,-0.148315,-0.0443059,-0.0479219,-0.0371883,0.00236991,0.0486545,0.0810686,-0.00634039,-0.0686858,-0.0706909,0.0499972,-0.0140399,-0.144553,0.0696145,0.140356,0.0687562,0.0583526,0.142899,-0.165744,0.0546113,-0.0766323,0.0523691,-0.0795087,-0.0187862,0.0163358,-0.0613568,-0.0111053,-0.059424,-0.00299934,-0.0359798,-0.0297803,0.0429617,0.0959437,0.134232,-0.0498898,-0.0552547,0.0860155,0.0816474,-0.0326547,-0.0452608,-0.0196536,0.200452,0.0639752,-0.0288957,0.0478713,-0.0150503,0.00685291,-0.204222,0.111315,-0.221674,0.0689615,-0.0245589,-0.0773764,0.0358165,-0.0789284,0.140165,0.0842433,0.0390662,-0.0244943,-0.0223567,0.0539579,-0.0789418,0.0764526,
time,0.115086,0.0795222,0.0100835,-0.0166266,0.103966,-0.0383667,-0.0110162,0.00828718,0.00063226,-0.0747196,-0.0810147,-0.107002,0.114443,-0.0814353,-0.180251,6.09167e-06,0.0970338,-0.0121071,0.000278599,0.0677299,0.0304517,-0.0307191,-0.0039295,0.127735,-0.0234367,-0.0782513,-0.112033,0.148269,-0.150787,0.10455,-0.0202059,0.108656,0.0281537,-0.0400778,0.110186,0.00798561,-0.128811,0.0969977,0.0585137,0.0363479,0.065079,0.120165,0.0669923,-0.0185694,-0.0522506,0.147133,-0.106697,0.00459672,-0.0238011,-0.0909529,0.0715249,-0.0651525,-0.120757,-0.0351283,-0.182597,0.107381,0.0544143,0.0843174,0.120106,-0.0791044,0.068062,-0.0739678,0.0147623,-0.0224963,0.175578,-0.0576497,-0.141066,0.0836484,0.0903438,0.0629815,0.0594346,-0.0427772,-0.0523175,0.0437133,-0.0525467,0.121212,0.13202,-0.0844098,-0.169561,0.0588997,0.0177299,0.0753671,-0.120386,-0.0720688,0.128606,0.0166747,-0.160695,-0.0839381,-0.0712408,-0.19296,0.0064707,0.116606,-0.107274,-0.0379024,-0.111483,0.111927,0.0182909,0.0396738,0.0957463,-0.179719,0.0274186,-0.0385158,-0.0831749,-0.0317086,-0.0878702,-0.00173561,0.221411,-0.022706,-0.0493007,-0.00492818,-0.128517,-0.036964,-0.108527,0.0431912,-0.0350479,0.103165,-0.135942,-0.0427924,-0.137659,-0.013852,0.0782519,-0.0105623,-0.0237541,-0.00125571,-0.0137498,0.118724,0.0392889,-0.0430632,
2,0.0636356,0.0796704,0.0766998,-0.155799,0.164065,-0.0759611,-0.0806801,0.194981,-0.0013469,-0.0264865,-0.066038,0.0813255,-0.0695053,0.05881,-0.0850113,-0.210723,-0.0502315,0.0139197,0.0191355,0.0184064,0.0301067,0.154668,0.0691832,-0.0326536,0.0143768,-0.101115,0.0165053,0.10503,-0.0869801,-0.0906226,-0.0430524,0.0207975,-0.0848829,0.0359709,0.063731,0.0622019,0.0260952,0.171612,0.0373947,-0.0525923,0.125885,-0.0414464,-0.0850984,-0.0730788,-0.0573005,0.106447,-0.0854421,-0.0430953,-0.0742005,-0.00127994,0.111788,-0.0429283,0.000540174,-0.0418288,-0.0730024,-0.283725,-0.0396528,-0.0298869,-0.13541,0.0615859,-0.0716746,-0.007713,0.0430237,-0.0906063,-0.208824,-0.0710996,0.118919,-0.0265785,-0.140027,0.0339083,-0.0514801,0.0675083,0.0617291,0.035447,-0.0837837,0.0205557,-0.123776,0.241209,-0.0252003,-0.133483,0.125268,0.021561,-0.0279269,-0.0548487,-0.0718921,0.0908116,-0.0145172,-0.0504021,-0.0866549,-0.0154966,-0.0177461,0.0390128,-0.0155539,0.00741392,0.0855074,-0.048126,-0.0502379,-0.058609,0.092961,0.109907,0.0039535,-0.0622928,-0.146615,-0.0325246,-0.0167762,-0.0899208,0.0865291,-0.0904377,0.147914,-0.0307406,0.0131061,0.104587,0.0496139,0.0323028,-0.0854637,0.100787,-0.0726995,0.0743953,-0.0618556,0.0289591,-0.0957229,0.0719662,0.0783539,0.0350126,0.0222819,0.0290953,-0.115569,-0.222019,
much,-0.0240728,0.0102377,-0.00554309,0.0993607,-0.0280045,-0.117597,-0.111142,0.14491,0.0811845,0.0314332,-0.0294355,0.15545,-0.0109337,0.0172669,0.108756,0.146145,0.0667627,-0.0777583,0.0660032,-0.0365963,-0.13279,-0.131833,-0.0262718,0.151597,0.167087,0.0406813,-0.103832,0.0895372,0.0656364,0.0620494,-0.174811,0.0953384,0.0496976,-0.0733781,-0.000550971,-0.142683,0.091657,0.078086,-0.0414967,-0.122997,0.0678332,-0.0693934,-0.102394,-0.0858061,0.0693893,-0.0479467,-0.097114,-0.0180318,0.0703019,0.0628623,-0.0667943,0.0504635,-0.0330666,-0.0250972,0.0673029,0.0163236,-0.05362,-0.156489,0.0502502,-0.0229573,0.0211615,-0.0896255,0.157303,0.0371249,0.139549,-0.235824,0.119877,0.111104,-0.0900876,-0.0444175,0.0580976,0.169718,0.132696,-0.0613652,-0.0123462,-0.112303,0.16363,0.047862,0.096995,-0.12553,-0.0604902,0.0923895,-0.0312991,-0.0750245,0.0532994,0.0553311,0.0077452,-0.0469417,-0.0961302,-0.0423381,0.0773668,0.0501207,0.0236169,0.0510699,-0.0848312,0.0652603,0.00141115,-0.0971246,-0.0865216,0.0744388,-0.085034,0.0857872,-0.145803,-0.00275281,0.0990114,-0.0451502,0.11455,-0.0207065,-0.0530883,0.0743364,-0.00910597,0.213238,-0.0698638,0.0946324,0.00707411,-0.143608,-0.0200677,0.0124973,0.108242,0.0843699,-0.00348085,0.102802,-0.0664522,-0.0389323,0.0920672,-0.0393147,0.0317105,0.0205881,
need,-0.016772,0.0121123,0.159903,0.00433748,0.0815711,-0.0503262,-0.0649485,-0.0467554,-0.000277675,0.00439103,-0.0338579,-0.0391721,-0.00981882,-0.138807,-0.00146735,0.0212876,0.101653,-0.00644864,-0.0232987,-0.119253,0.122878,0.0660153,-0.0843275,-0.147324,0.0820624,-0.0528506,-0.0918022,0.0146252,0.0724299,-0.0350857,0.0780803,0.0786524,-0.112232,-0.249939,-0.0896797,0.0165734,-0.0034331,-0.0171896,-0.222148,0.134762,0.136851,-0.111089,0.0498127,-0.0230697,-0.0274806,-0.110201,0.014486,0.148065,-0.0409535,-0.11714,-0.0446128,-0.0118641,-0.062666,0.0571746,0.10692,0.0134517,0.141799,-0.0151307,-0.120437,-0.101598,-0.0571945,-0.0558455,0.0077244,-0.0702527,-0.158819,-0.054557,-0.0716542,-0.0400822,-0.0469109,0.0326821,-0.019572,-0.205235,-0.0269302,-0.154893,0.00424258,-0.0916154,0.210692,-0.0476788,0.115946,-0.0882698,-0.0563176,0.14837,-0.0184834,0.0558898,0.0901953,0.0166367,-0.0356817,-0.164123,0.0115618,-0.033546,-0.000527568,0.013531,0.184949,-0.100663,-0.0710293,-0.0134374,0.0309179,0.0918518,-0.0731232,-0.0229772,-0.0754549,-0.182862,-0.130006,0.0220696,-0.0943241,-0.1279,0.057948,-0.137703,-0.00226173,0.108623,-0.0734431,-0.000460219,0.0135368,-0.0223558,-0.0411373,-0.0367259,-0.0382209,0.0322665,-0.0340346,-0.0185767,-0.0196641,-0.0349987,0.0869099,-0.0164577,0.175208,-0.165896,-0.0464236,0.0144234,
think,-0.140286,0.163739,-0.0493353,0.123581,0.0844793,-0.109269,0.0419733,-0.188707,0.0251566,-0.103387,0.116652,0.117377,-0.0583503,0.104908,-0.0581226,-0.081782,0.0671091,0.044891,-0.0175996,0.121627,0.0388827,-0.0463014,0.121871,0.0229147,-0.179064,0.109688,0.00853494,0.0849798,-0.0284167,0.0310199,0.0233934,0.0509305,-0.0654182,0.0400517,0.163109,-0.0916519,0.0630042,-0.0791938,0.151333,-0.0517415,-0.0749195,0.146512,-0.00932815,0.0171958,-0.0317205,0.0725401,0.0755241,0.0869385,-0.0736068,0.0600615,0.0746004,0.000783345,0.0596529,-0.0129761,-0.0534331,-0.126261,-0.0587665,-0.088726,0.0798154,-0.00321472,0.00230457,0.0309755,0.0348179,0.0441892,-0.131805,-0.157822,0.0562404,0.062375,0.123204,0.0578102,-0.10307,0.11124,0.203541,-0.0194022,-0.102147,0.0225049,-0.104367,-0.0802553,-0.0151273,-0.0428199,0.00921175,-0.0196568,0.0525442,-0.047001,-0.116404,-0.134337,0.138464,-0.0407113,-0.034098,0.020015,0.127226,0.0844957,-0.0737355,0.0185086,0.0684324,-0.0662538,0.0077666,-0.0557948,0.0666829,-0.202142,-0.0331404,-0.0358695,-0.129914,0.0286891,0.0144612,-0.0547858,0.0534408,-0.163622,0.128391,-0.0644428,-0.127598,-0.115618,-0.158842,0.0241408,-0.0300923,-0.173588,0.0526815,-0.0546656,-0.0172238,-0.148337,-0.0209175,-0.00750059,0.0911955,0.0457249,0.062239,-0.0754556,0.0440681,-0.130168,
sleeping,0.0191061,-0.0572123,-0.112804,0.0167757,-0.0736363,-0.00953564,-0.0152764,-0.0295598,-0.02947,0.175836,-0.143167,0.00646511,-0.061659,0.0710501,-0.144297,0.04471,0.100281,0.0326956,0.128484,0.0896426,-0.0294313,0.140406,-0.0975712,-0.0595614,-0.00453573,-0.160143,-0.0753359,-0.137399,-0.0539134,-0.00546508,0.0882923,-0.0775424,0.0239373,-0.144975,-0.0675887,0.0586958,-0.0459422,-0.0269603,-0.0385659,0.0178397,-0.00288617,-0.0396469,-0.13677,-0.0101616,0.0812097,-0.0291729,-0.108426,-0.00698547,-0.120198,0.125605,0.00565678,-0.0100102,0.0896954,-0.0952739,-0.0604998,-0.117594,0.0246003,-0.0346618,0.0719887,-0.159266,-0.133683,0.104335,-0.0228577,0.0258687,-0.0522322,-0.0221448,0.0443651,0.0159373,0.00933303,0.0865416,0.0259798,0.0920159,-0.108416,-0.13031,-0.0276036,0.0350285,-0.000776091,0.0186872,-0.188274,0.0352364,-0.0300112,-0.0479269,0.0912344,0.0756515,0.0151757,0.102743,0.14885,-0.0932066,-0.192064,-0.149068,-0.112748,0.0947979,-0.0304433,0.0172815,-0.0110288,-0.0492359,0.119129,-0.142123,0.0483638,0.00650627,-0.0274316,0.0333733,-0.213193,0.140592,-0.0745445,0.094369,0.103389,-0.0855612,0.139543,0.0362388,0.173357,0.0534205,0.0448043,-0.0804483,0.0425407,-0.1423,-0.00379277,0.139833,0.139182,0.000614977,0.151518,0.0253902,-0.0409974,-0.121549,-0.0552129,-0.0925388,0.0768064,-0.0696869,
prozac,0.00870716,0.0371916,-0.139048,-0.0882629,0.079072,-0.0839346,-0.0307541,0.0284975,-0.117223,-0.00449099,0.0150128,-0.0441293,0.0594082,-0.10068,-0.0488177,0.0521806,0.0959975,-0.00378275,-0.126258,-0.0733863,0.0127007,-0.0926143,-0.0102076,-0.0119671,-0.0528035,-0.0383295,-0.120086,0.0356818,0.0728464,-0.0940372,0.0535672,0.0102154,-0.02612,0.123905,0.0928912,0.10619,-0.155274,-0.0726345,0.0220876,0.00517409,-0.107531,0.0705338,-0.0512458,0.0458776,-0.0458319,-0.0205525,0.148147,0.121738,0.227956,0.0185072,0.0765096,-0.015334,-0.0143127,-0.107912,0.0188538,-0.181092,-0.0114111,-0.00515796,-0.0259923,0.113738,-0.139907,0.16284,-0.00862899,0.181669,0.0693502,-0.0481032,0.0689983,-0.0423624,0.0111132,-0.0147356,0.366329,0.0787522,0.107586,-0.0103958,-0.110256,-0.123,0.0115433,0.0858924,-0.185813,-0.095695,0.062485,0.025359,0.028527,-0.0319793,0.12219,0.0047814,-0.0602553,0.12012,0.0589928,-0.0341953,0.0373998,-0.149913,0.0389816,0.00320988,0.10206,0.0854454,0.144282,0.0634395,-0.00759107,0.0474441,0.225189,-0.0126076,-0.110157,0.00194896,-0.0673989,-0.0554096,0.0806446,-0.0179529,0.14647,0.0630338,-0.0126056,0.0566495,-0.0628439,0.0396487,-0.0812057,0.065042,0.0337237,0.0668631,0.00525175,-0.0954452,0.0966573,-0.0175049,0.0168597,0.000922171,-0.00784032,-0.117331,0.0236583,-0.041883,
good,0.120389,-0.00410555,0.065824,0.00541756,0.0392334,0.0169416,0.0840345,-0.0868668,0.103917,-0.0419296,0.00353895,-0.0459176,-0.0597587,-0.136014,-0.0643321,-0.0316451,0.0689822,0.0263099,0.111581,0.0229205,0.0285239,-0.0365283,-0.0536754,0.0127033,-0.0322686,-0.229011,0.127908,-0.083726,0.0955572,-0.0469597,-0.0680979,-0.0760356,-0.143283,-0.111955,-0.0592297,-0.2305,0.0881631,0.0958455,-0.104845,0.016637,0.0190053,0.0218868,-0.00600084,0.133761,-0.0205478,0.0326736,-0.0611535,-0.0380263,0.0685674,-0.0348976,0.192797,-0.0617397,-0.0682943,-0.0336393,-0.0287801,-0.0181333,0.0770147,0.0217463,0.196699,-0.12012,-0.0231816,0.0700767,-0.126783,-0.120334,-0.0177122,-0.152656,0.00327567,0.143187,0.0305792,0.0393483,-0.00753192,0.09166,-0.0751278,-0.00472673,0.142262,-0.164661,-0.0161932,-0.125428,-0.209105,0.128231,-0.0699633,-0.00538908,-0.151095,-0.0313755,0.025057,-0.0884618,-0.157626,0.0129126,0.0780239,-0.0617363,0.00342138,-0.0167598,0.0864154,0.0505521,0.0677039,0.0203399,-0.164251,0.101651,0.00482925,0.131975,-0.0422373,-0.14868,-0.0284195,0.00904854,0.049279,0.0645214,0.095794,0.131162,0.0647605,-0.0901034,0.0323109,-0.0382068,0.0943076,-0.0427986,0.165264,-0.099963,0.015424,0.158246,-0.00242437,-0.0969801,0.0300153,0.0387058,-0.071931,-0.0556292,-0.078174,-0.0910695,0.0153851,-0.0283006,
last,0.00691891,-0.000764117,0.140051,-0.0442064,0.0379695,-0.0835472,0.0417958,0.0202078,0.186003,-0.0314538,-0.0362849,-0.0172841,-0.0120597,0.0643075,-0.00528517,0.0711121,0.011537,0.159514,-0.00399873,-0.0708534,0.0500004,0.105672,-0.14861,-0.0274251,-0.0312336,-0.124434,-0.102248,0.178223,0.113436,-0.14355,-0.142731,0.0638261,0.0471178,-0.129747,0.0156064,-0.118492,-0.110818,0.0637033,0.0751943,-0.110945,0.033433,-0.076223,0.0467867,-0.12066,0.0259561,0.0284044,0.146632,-0.0435751,-0.0159835,0.214826,0.0509135,-0.119475,0.00274352,0.101068,-0.0279345,0.0915793,0.0432691,-0.176286,0.00457635,0.107688,0.072161,0.0428051,0.0232124,-0.0014479,-0.0279462,-0.00607893,-0.141395,-0.0896968,-0.0934869,0.0340327,0.0372434,-0.0285325,0.0281142,-0.0912199,0.121771,-0.012023,-0.0987307,0.0281993,-0.0910398,-0.0554344,-0.0506524,0.00884244,0.108738,0.0910595,-0.0719452,-0.108239,-0.107496,-0.0633217,0.0322611,-0.0285282,-0.00423399,0.0662011,-0.0400551,-0.00500054,0.01357,0.0360515,-0.0693896,-0.081717,0.0606948,-0.031111,0.0999197,0.0788409,-0.13543,0.0966802,-0.0104124,-0.0410124,0.0184418,0.00586856,-0.132507,0.130501,0.0726488,0.160482,0.0163151,-0.0989407,0.0197516,0.161429,-0.183307,0.00476774,0.176074,-0.0286868,0.231102,0.0631586,0.089336,0.178242,-0.00393159,-0.0676144,0.0453242,-0.0377855,
hours,-0.0420612,0.1152,-0.0928105,0.0473272,0.042254,-0.0402117,-0.00827047,-0.0849761,-0.0103467,-0.199508,0.0621322,-0.167181,-0.0135861,0.1517,-0.0519009,0.0138366,-0.00760561,-0.0330577,0.03288,-0.0205286,0.0765905,0.0459466,0.0140479,-0.026542,0.06567,-0.0315932,-0.0358352,-0.229183,0.1822,-0.0614151,-0.0281222,-0.0258952,0.0161895,-0.129767,-0.0760913,0.0782258,0.0516255,-0.13539,0.0636286,-0.089798,0.0394372,0.0188472,-0.0242057,0.0054748,-0.0573952,-0.0604928,-0.0174571,0.0803542,-0.13569,0.0232209,0.107185,0.0877736,-0.0944013,0.120381,-0.186698,-0.00710307,-0.158453,0.045992,0.0196233,0.0819605,-0.0140802,-0.0393766,-0.0757277,-0.1296,0.166044,-0.125606,0.119951,-0.0017809,0.00845318,-0.011386,0.0567177,0.115167,0.140175,-0.0261595,-0.0622218,-0.00755416,0.134765,0.0704763,0.128684,0.0429752,-0.00742062,0.10151,0.140615,0.0677233,0.0415851,-0.10673,-0.124259,0.0866636,-0.0548549,-0.20461,0.0381642,-0.0249656,-0.00474503,0.0204765,-0.00167069,-0.102012,-0.0393163,-0.011983,0.0752997,-0.0943879,0.00704143,0.0501277,-0.102739,0.289424,0.0248276,-0.00822331,0.00110607,-0.00423431,0.00874666,0.0424894,-0.106434,-0.0325178,0.0341352,-0.0771828,0.043428,0.0386136,-0.0746131,0.0420074,-0.150739,0.0299719,-0.0403712,-0.204395,-0.140448,0.0609595,-0.0848287,-0.0803508,-0.0579909,0.0293274,
prednisone,-0.0526053,0.0137302,-0.0918381,-0.0569482,-0.024037,0.101615,-0.0373498,0.131539,0.0792233,0.0309878,0.00810148,-0.156914,-0.00973189,0.10117,0.169246,0.053235,-0.189848,-0.0139446,0.0394272,-0.0838226,0.0154053,0.109227,-0.00577591,0.0119355,0.0253001,0.0622903,-0.129621,-0.0470798,-0.0393009,0.00799537,-0.0264413,-0.0812144,-0.148464,-0.0959046,-0.00438653,0.0289771,-0.0701073,0.0407412,0.143476,-0.0665746,0.0140905,-0.106745,0.144108,0.12135,0.0399879,0.0677524,0.110285,-0.113851,0.0898813,-0.175042,0.0518484,-0.0288353,0.0315556,-0.0332058,-0.026971,0.07263,0.00146067,0.150513,-0.0930011,0.0550067,0.116633,-0.141191,-0.100492,-0.00777292,-0.226115,0.165236,0.0793802,0.00853651,0.0753355,-0.0652903,0.0566147,0.0421932,0.0670904,-0.0436294,0.0548055,-0.125802,-0.0263914,-0.0391897,0.0341662,0.0189757,0.146767,-0.0240647,0.13093,-0.00926338,0.0463595,0.00812827,0.194291,-0.00676053,0.0856646,-0.0278698,-0.0161323,-0.171564,0.113656,-0.097387,0.110844,0.0386553,-0.00302776,0.139168,0.0277958,0.0479315,0.10502,0.0536298,0.0557889,-0.0909254,-0.00756915,0.0464894,0.0501084,0.109719,0.0225623,0.11199,0.0175989,-0.00969778,-0.119938,-0.0493795,0.0041254,0.0693694,0.0202913,0.0659305,-0.126281,0.0212918,-0.155688,0.144384,0.0235714,-0.0435378,-0.160101,-0.128649,-0.0609281,-0.160318,
made,0.149464,-0.0418479,-0.0989703,-0.122123,0.0376534,-0.0779992,-0.0597567,-0.0511347,-0.00678936,-0.0191677,-0.00439115,-0.105305,0.0996508,-0.108226,-0.0162082,-0.0228606,0.10664,0.133048,0.00626376,0.00143261,-0.0774903,-0.0437955,-0.0980463,0.106193,-0.0861797,-0.112573,0.0708119,0.0451721,-0.00408085,-0.0822933,-0.11689,0.0371877,-0.0502096,-0.052674,0.0934006,-0.0161348,-0.0408476,0.140743,0.0220331,0.0928392,0.0103525,-0.249316,0.112408,0.0124842,0.0260756,-0.221128,-0.13992,0.0672287,0.0539498,0.164509,0.0730773,0.117683,-0.0331011,0.0362715,-0.0258792,0.089487,-0.063903,0.0277494,0.0612864,0.0107542,-0.0612868,0.0850831,0.110638,-0.0331637,-0.19284,-0.0302651,0.197809,0.0516572,-0.0629724,0.0537757,-0.0491282,0.119271,-0.0952758,-0.101777,-0.147957,-0.179043,-0.0651577,-0.110322,-0.0539459,0.155014,-0.00397708,0.0265487,0.104816,0.10177,-0.00627072,0.0516027,-0.0352999,0.0106282,-0.0415808,-0.0304213,-0.0170739,-0.178488,0.05469,-0.00141191,-0.0568607,-0.134084,0.00170633,-0.0626433,-0.0858872,0.0202497,0.00858665,0.103347,-0.0100775,-0.0598324,0.10231,0.141404,0.137797,-0.130982,-0.0804811,0.0951551,-0.0822013,0.0467039,-0.0601048,0.0780994,0.075845,0.00630212,-0.0587217,-0.0550104,-0.0215384,-0.00067218,0.136461,0.0401687,-0.0376824,0.1148,0.0130634,0.0936485,-0.135289,-0.0521648,
work,0.0419117,0.0602298,0.0354213,-0.0707467,-0.0349461,0.0411162,0.100079,-0.102625,-0.00664348,-0.0292006,0.123302,0.0657578,-0.000610191,0.107717,-0.0927656,-0.00574754,-0.0128185,-0.106561,-0.103362,-0.0354256,0.0307667,0.0790463,-0.0752527,-0.0643749,0.140985,0.0388942,0.0560005,0.00705336,0.0292794,-0.0637199,0.0661613,-0.136617,0.00195368,-0.16109,-0.017719,0.0901992,-0.0353819,-0.0527824,0.0825666,-0.19653,-0.0286704,-0.0941598,-0.00243077,-0.0901746,0.156062,-0.0480278,-0.0123486,0.0253614,-0.10383,-0.0962628,0.00709293,-0.0579126,0.00132596,0.102476,0.176517,-0.0383095,-0.0512897,-0.0165787,-0.0188781,0.150798,-0.0407206,-0.114362,-0.0293202,0.00999829,0.0556988,0.0495966,-0.049409,-0.0670051,0.0253655,-0.0373912,0.101406,0.0965266,-0.0316162,0.211732,0.140926,-0.0727752,0.0201773,0.116901,-0.00402065,0.165905,-0.103362,0.11067,0.0909579,-0.154002,-0.174245,-0.0788556,-0.115678,-0.0926265,-0.0618981,-0.00880001,-0.094808,-0.0322477,0.0676733,-0.0871442,0.0994832,0.0519931,-0.0236199,-0.0529044,0.212834,0.129219,0.0978554,0.0965365,0.183679,0.0219663,-0.0889537,-0.033033,0.0841831,-0.0791322,-0.0609815,0.0628875,0.0381748,-0.233628,0.0448017,0.0311279,0.0413675,-0.117693,-0.0142125,-0.00348646,-0.0692919,-0.0895731,-0.0529849,0.0323222,0.00161111,-0.129223,0.0268708,-0.0385701,0.180751,-0.057775,
bad,-0.112558,0.042912,-0.031226,0.0944588,0.00979661,0.123555,-0.109731,0.0895198,0.0232798,-0.144648,-0.130218,0.0405589,-0.101038,0.0284728,-0.0626832,-0.0613374,-0.00128277,0.0185475,0.024043,0.0096984,0.0633368,0.0979812,-0.0273522,-0.0754722,-0.115315,0.0299463,0.0647655,-0.012871,0.0370899,0.105213,-0.157597,-0.112563,0.0464898,-0.139358,0.24128,0.0641755,0.00495517,0.107228,0.155617,-0.0403496,0.0445368,0.0464343,0.0921712,-0.14359,-0.00901003,0.0134004,-0.086128,0.16876,0.0396353,0.0125313,-0.0344163,-0.157094,-0.0501516,-0.0612753,0.0130541,-0.076113,0.101165,-0.0589146,0.148083,-0.0930815,-0.0599916,-0.119774,0.0226932,0.00894332,0.014043,0.000638717,-0.0285041,-0.0489066,0.0601111,-0.0255999,0.024129,0.0231218,-0.170691,0.0470146,-0.0496752,0.0215777,0.0942794,0.0396302,-0.0112649,0.134909,0.0544463,0.0224405,0.112311,0.108438,-0.0350758,-0.00503715,-0.00733907,-0.0784616,0.0363598,-0.129562,0.0642206,-0.0853514,0.134899,0.1856,0.105568,0.0895363,0.00812279,0.0452281,-0.0146486,0.0101997,0.0108299,-0.0179151,0.0471912,-0.0580444,-0.0472662,-0.0555419,0.128463,0.19968,-0.000368159,-0.122754,-0.0343866,0.0303705,-0.075363,0.0859497,-0.0899988,-0.00779068,0.0132294,0.0193988,0.0264635,0.0866277,-0.115872,0.0170241,0.0242915,-0.0360669,-0.0855683,-0.269386,-0.269437,0.0675728,
3,-0.0101494,0.0794743,-0.0464707,0.022853,-0.126448,0.0157609,-0.114852,-0.0516374,0.0489111,-0.0421455,-0.0462177,0.0910962,-0.0212161,0.032927,0.0152812,0.101228,0.129012,0.0223331,0.300899,0.0527855,-0.0311345,0.0478642,-0.0793885,-0.00244203,-0.00541623,0.0728344,0.0141427,0.0758977,-0.0638236,0.0386847,-0.0916073,0.0841281,-0.0318339,-0.0664174,0.0520232,0.190335,-0.0269112,0.0191114,0.0225498,0.0646607,-0.00732862,0.130618,-0.160934,-0.00412681,0.0493917,-0.048001,0.0858833,-0.0671389,0.00923952,0.0467427,-0.142127,-0.0727391,0.046794,-0.141353,0.015771,0.0109304,0.0693159,0.0813594,0.101803,0.106777,-0.0849941,-0.0171896,-0.0252485,0.00321592,0.0996233,-0.012764,-0.0231575,-0.0262684,0.0471701,0.225715,-0.0140628,-0.186989,0.0942581,-0.149182,-0.077229,-0.0853055,-0.104264,-0.0240069,0.0964123,0.0171746,-0.0159547,-0.0306547,-0.0225971,-0.0201326,-0.188351,0.0659143,-0.189855,0.0883142,0.0589341,-0.109711,-0.0490287,0.0915261,-0.0254086,-0.0243423,-0.0416395,-0.0909866,-0.127796,-0.139362,-0.0493202,0.0228878,0.170625,0.0839344,0.116533,-0.0531808,-0.0438794,-0.034255,0.0254777,0.0273302,-0.0261913,0.122765,-0.0293965,-0.106212,-0.0611732,0.0443848,0.116357,0.163687,0.0116876,-0.0617649,0.0111863,0.146571,0.0689181,0.0121217,-0.16101,0.0694292,0.0318457,-0.155527,-0.0726077,-0.169067,
make,-0.263906,0.0694825,0.0918509,-0.0742311,0.0547921,0.0397932,0.0360798,0.0336583,0.14325,0.0785554,-0.0702508,0.109272,-0.0559725,0.0314769,-0.0439028,0.0636699,0.0180496,-0.119363,0.0314971,0.0197588,-0.164563,0.0134252,-0.165339,-0.0932974,-0.0144427,0.0756022,-0.0163039,0.0845224,0.214456,-0.0670405,-0.104454,-0.0134269,-0.00232549,0.108024,0.0473783,-0.049061,-0.120508,0.0819568,-0.123348,0.0218596,-0.133111,-0.0267188,0.0226202,0.00884036,-0.054871,0.000362793,-0.0779739,-0.0343862,-0.0559984,0.0138354,-0.0318122,0.0518086,-0.0954212,0.040621,0.0598245,-0.0977152,-0.0259758,0.118274,-0.0192671,0.0266921,0.1919,-0.0270633,-0.0145155,-0.0310551,0.194413,0.033512,0.11422,0.155615,-0.0918927,-0.000756405,0.0686073,0.097985,-0.00302211,-0.1515,-0.0606449,-0.0490517,0.150382,-0.0171854,-0.0608143,0.0984536,-0.0216836,-0.108158,-0.0503744,0.0633117,0.0332517,0.0253864,0.0140806,-0.0297597,-0.156917,-0.166898,0.0310596,-0.123249,0.00445201,0.199958,0.180845,0.00877297,0.0494012,-0.12553,-0.0401938,-0.060466,-0.00291527,-0.0777771,-0.0799289,0.108543,-0.0393879,-0.0208164,-0.0217146,-0.129497,0.12786,-0.0526195,-0.0975052,0.0854896,-0.117865,-0.0624737,0.138768,0.0482117,-0.0100275,-0.0443089,-0.0150851,-0.107332,-0.0244611,0.0987057,-0.0185545,0.123834,0.0882827,-0.0163448,0.10181,-0.0322512,
lol,0.00958766,0.00246318,0.0522945,0.0497548,-0.060514,0.109112,0.0556085,0.00245682,-0.1052,0.0370792,-0.0579959,-0.114345,0.0112196,0.0815394,0.0596854,0.0256249,0.234134,-0.146058,0.147418,-0.127501,0.0753398,0.132296,0.0795222,-0.113184,-0.00664328,0.0494258,0.146426,0.00756144,0.136959,0.073542,0.15498,-0.0309204,0.0268796,0.0404491,0.0717496,0.0972503,0.084156,-0.0147585,-0.0622914,0.0240793,0.017226,-0.0588582,0.187387,0.100829,0.0169937,-0.0306837,0.0206712,0.0561996,0.0336671,-0.0561189,0.128559,0.0267163,-0.0481013,-0.0104635,0.0339963,0.0639694,0.120382,0.044744,-0.0523942,0.210573,0.161718,-0.050994,0.0959722,-0.0340003,-0.0973657,-0.0401894,-0.0585777,0.143823,0.144638,0.088022,-0.0352809,-0.0504726,-0.0592162,0.123818,0.0724772,0.304784,-0.0612979,0.0424501,-0.0310219,0.168845,-0.00139727,-0.041619,0.117294,0.0248669,-0.143864,0.0106885,-0.0430977,0.206122,0.00481762,-0.0874022,-0.04232,-0.0687649,0.150267,-0.0436883,-0.0662874,0.00414364,0.0706756,-0.106612,-0.035015,-0.0263732,0.0550241,0.128331,0.0168376,-0.182836,-0.0772121,-0.04369,0.0367924,-0.0811407,-0.015152,-0.00877564,-0.0966936,-0.0637629,0.031012,0.0635259,-0.014375,-0.0280062,0.00400471,0.0169197,0.0873327,-0.0179757,-0.0569618,0.0313359,0.123325,0.0944527,0.0186559,0.00555207,0.0619019,-0.0152678,
didnt,-0.0587366,0.0105891,0.244658,-0.0323994,0.0259232,-0.0142249,0.138846,0.0735983,0.0314268,0.0629458,-0.117698,0.00898584,-0.0754803,0.158605,-0.0487623,-0.0602205,0.101192,0.0540181,0.078725,-0.185445,-0.0396577,-0.0471833,0.149333,0.0363555,0.0381678,-0.105774,-0.0658925,-0.102921,-0.109545,-0.211752,-0.0110975,-0.0750679,0.0908109,-0.0576756,0.0390173,0.140775,0.000386812,0.0299888,-0.0361069,0.162058,-0.0820642,0.0193825,-0.109245,-0.050181,0.0664271,0.0279736,-0.0867636,-0.0306671,0.115472,-0.0873433,-0.0259766,-0.293089,-0.0694134,0.0459052,0.0470363,0.0450273,-0.0770433,0.07369,-0.0650951,-0.0781139,0.0754219,-0.0885707,0.131757,-0.0137762,-0.0375958,0.0713413,-0.0746622,0.113116,0.0712979,0.0742705,0.0285203,-0.172707,0.142725,-0.127774,0.166484,-0.0432221,0.0387728,0.0148658,-0.123222,-0.0739348,0.0304638,0.00734064,0.0483455,-0.019987,-0.0214629,-0.145618,0.0637812,-0.0629217,0.104574,0.0606044,0.073989,0.0246303,0.0359238,0.0349332,-0.0132322,-0.152588,0.109626,-0.0361475,-0.0236092,0.0358494,0.137921,0.00371953,0.106264,0.151891,-0.0557763,0.15747,0.0799046,-0.0162453,-0.0140107,0.0227947,-0.0555684,-0.0334329,-0.0193128,0.057693,0.0380927,0.026296,-0.0430147,-0.0174222,-0.0140098,0.110201,0.0703367,0.0442987,0.121867,0.00720537,-0.013163,0.132968,-0.101194,-0.0406439,
feeling,0.177354,-0.122232,0.052805,-0.0985338,-0.0257684,-0.108302,0.0331768,-0.170801,-0.0330556,-0.105409,0.0012905,0.0206128,0.0940592,0.11788,-0.0149487,0.0535162,-0.0346917,0.0196946,0.0302984,0.000388721,0.0318623,-0.0386637,0.0431558,0.0236568,-0.00122129,-0.0382722,-0.129558,0.0312988,-0.10633,0.0643286,0.185617,0.0704018,0.0748741,0.0329735,0.0310368,-0.0362641,0.033976,0.147021,0.108677,-0.022936,-0.00370683,-0.0960809,-0.0153874,0.112653,0.078318,0.0544927,0.037699,0.00485333,0.172318,0.020578,-0.0739548,-0.00903649,0.00922355,0.0697656,0.176805,-0.144248,0.170879,0.00982588,-0.0309478,-0.0885732,0.118649,0.00222844,-0.0712902,0.000211337,0.0432614,0.0315783,-0.0162895,0.0748916,-0.0429883,-0.0998537,0.0253882,-0.0457027,0.0415499,0.0619845,-0.106999,0.12109,0.129854,-0.0345689,-0.0419316,-0.0132642,-0.165843,-0.00215031,-0.0404631,0.0147437,-0.0954633,-0.0850423,0.00501339,0.013589,0.017394,0.103161,0.0529273,0.0598977,0.175082,0.119686,0.0922308,-0.0511931,-0.18939,-0.0375827,0.0835482,0.102858,0.040879,0.0895395,-0.00550413,0.0881947,-0.0859326,-0.0892484,0.127742,-0.154261,0.162613,0.0730774,0.048813,-0.220788,0.118284,-0.0524441,-0.0169258,0.124985,0.0472562,-0.00560216,0.0662685,-0.108426,-0.124781,0.00641378,0.0956971,0.0491784,-0.0122418,-0.226935,0.12684,-0.025985,
go,-0.0172217,-0.14758,0.075036,0.00353911,0.0868635,-0.0731124,-0.0594433,0.0883025,-0.103368,0.0295015,-0.168567,0.0464904,-0.128425,-0.0315865,-0.0222345,-0.0222412,-0.00917764,-0.0464906,0.148757,0.0615508,-0.118658,0.0370122,-0.0221181,-0.0257234,-0.0452548,0.0200515,0.0184612,-0.02051,-0.12905,-0.127768,-0.158979,-0.0501904,0.0744966,0.0246186,-0.0892905,0.0440079,-0.171932,0.195191,0.08958,0.0356089,0.0622011,0.138085,-0.073543,0.0761145,0.126192,0.0402419,0.0339156,0.00794238,-0.0198068,-0.00206277,0.126821,0.15249,-0.0315444,-0.0706513,0.0409936,-0.00214778,0.0122962,-0.081705,-0.0919111,0.0350291,-0.0878878,0.152577,0.0567604,0.0657636,-0.00261912,0.0523055,-0.14333,0.0567341,-0.0128899,0.0733782,-0.0441812,0.151635,-0.0226439,-0.0335048,-0.00815319,0.110051,-0.0440081,0.153323,-0.0136442,-0.0073983,0.0374201,0.0899422,-0.0861829,-0.0744221,0.0842384,-0.010363,-0.086215,0.0497234,0.0652876,-0.0241722,0.140222,0.0299862,-0.116727,0.0513208,-0.150987,-0.00721808,0.123712,-0.0868553,-0.0716204,-0.00533233,0.0953858,-0.0609407,0.0815859,0.0853433,-0.116838,-0.113462,-0.0570613,0.033878,-0.122695,-0.168415,0.0374898,-0.0638674,0.0262099,-0.0590172,0.0653958,0.132713,0.00659678,0.0469647,0.0490723,-0.212613,0.184062,-0.026617,0.13699,-0.21509,0.00782462,-0.118883,0.0733533,0.00691887,
back,0.144345,0.142329,0.148755,-0.00239901,-0.00674916,0.0599316,-0.154912,0.0336516,0.0480672,0.00343532,0.0519637,0.0652947,0.0650567,0.112751,-0.0189499,0.0167252,0.0297353,0.035903,-0.212494,7.55742e-05,-0.1083,0.0443767,-0.0388063,0.15632,-0.108224,-0.0296796,-0.0310379,-0.0469136,0.14536,0.0227808,0.145943,0.00176098,-0.0696156,0.0697924,-0.0240129,0.0464083,0.00240609,-0.204783,-0.137116,-0.0400429,0.104474,0.0183785,-0.0114917,-0.0172195,-0.0427887,-0.0110761,-0.0341789,-0.064017,0.0206395,-0.0748066,-0.0359802,0.0801595,0.165273,-0.0402074,-0.0491997,-0.0411976,-0.0333935,0.12228,-0.17024,0.00644795,0.0612363,-0.149577,0.141246,0.0564155,-0.00578112,0.0613185,0.0180205,0.157588,0.153202,0.115727,0.00639456,0.0157854,0.0230227,0.0115517,-0.128539,-0.0577914,-0.0123158,0.0109537,-0.0245887,0.0301573,-0.00805301,-0.11271,0.121138,0.0606098,-0.0301658,-0.0056265,-0.124933,-0.0206349,0.0502825,0.0224997,0.0405665,0.050551,0.253239,0.155273,0.000468504,-0.0171197,0.021758,0.0874227,0.141643,-0.130429,-0.113515,0.204461,-0.0472911,-0.0233179,0.101129,0.0578465,-0.204619,0.0117312,0.0699085,-0.00217351,0.121453,0.128693,-0.0172729,0.0391317,0.0404469,-0.0538041,-0.107194,-0.132965,0.0247064,-0.00172231,0.0249521,-0.0690506,0.100368,-0.0335542,-0.0364133,-0.0245626,-0.136548,-0.0243815,
better,0.145843,0.0570934,0.0572735,0.0564639,0.0847638,0.0515245,0.00534547,-0.0733533,0.0847168,0.0355832,0.0880115,0.0767454,-0.0461906,0.126568,-0.0438711,-0.0041993,0.00524238,0.0550821,-0.0335494,-0.0496706,0.11485,-0.060998,0.167011,0.0296533,0.0246783,0.106924,-0.2396,0.0169152,0.0862546,0.0491111,0.112357,0.00820069,-0.0282115,0.0875389,-0.131642,-0.0114787,-0.12541,0.0489644,-0.134069,0.156023,0.0579362,-0.0416629,0.052816,-0.116635,0.041141,0.0880193,-0.101537,0.0395691,0.0132288,-0.0425242,-0.00949109,0.0520721,0.0946988,-0.00158615,-0.0819701,-0.0276115,-0.0998784,0.0488832,0.115818,-0.0163493,-0.0205833,0.0598811,-0.0237034,-0.0349187,-0.0146332,0.0382109,0.0243339,0.0173724,-0.0428668,-0.145861,0.0846633,0.0277159,0.103175,0.0943542,-0.00390837,-0.0881614,-0.00934212,-0.146893,-0.131623,0.00792483,0.120824,-0.0830969,-0.0221446,-0.0838235,0.00461753,0.147197,-0.00773221,0.0746185,0.144323,-0.118878,-0.0541538,0.059991,0.183279,-0.185587,0.0131348,0.0995933,-0.0884977,-0.0380352,-0.0609392,-0.0913359,-0.168046,0.0401347,0.0568505,0.129527,-0.12817,0.00736966,-0.0241045,-0.0489311,0.0783486,0.107258,-0.160017,0.0581181,-0.160398,-0.0847528,0.0399123,0.0469953,-0.0134717,-0.0743672,0.0735477,0.172673,-0.0152395,0.0293004,-0.118223,-0.111354,0.00748529,-0.146511,0.131172,-0.166266,
fuck,0.0689328,-0.137675,0.0470396,0.0156587,0.0620891,-0.0256013,-0.0457595,-0.00954185,0.0123512,0.00436354,-0.0968229,-0.0234687,-0.0397949,0.150411,-0.0211288,0.122556,0.0288554,0.040985,0.00373308,0.106967,0.0949662,-0.120659,0.0388075,-0.133188,0.144484,0.159131,-0.0116648,-0.108198,-0.00526786,-0.0453634,-0.10912,0.0534992,-0.0178444,0.0755294,-0.18623,0.0453227,0.16648,0.128496,-0.0812328,0.0490276,-0.114217,0.0588052,-0.00354707,0.031679,-0.120791,-0.00663139,0.0447224,0.0838438,-0.0893283,0.274602,-0.154703,-0.0503303,-0.0619737,0.123956,0.0182596,-0.0755339,-0.0295088,-0.0419373,0.0207895,-0.00418289,0.0156775,0.0971906,0.0446085,0.0323178,-0.148345,0.0475055,-0.0595587,0.016822,0.196461,0.0115886,0.0480198,0.000414254,0.0533273,0.183164,-0.0646621,-0.114887,-0.0637489,-0.00924536,0.00189229,0.0850061,0.129593,0.0889134,0.0517855,-0.242018,0.0462082,-0.10059,0.0357228,0.0611865,0.0315849,-0.112821,-0.140573,0.0917633,0.0662075,-0.00791174,-0.07296,0.0572726,-0.0591087,-0.0571315,-0.107592,0.0957583,-0.0448678,-0.0608776,0.0813621,0.00443148,-0.0646433,0.0230638,-0.037791,-0.110246,0.175173,0.00910351,-0.0629167,-0.0322803,-0.0673544,0.0733191,0.0684579,-0.141918,0.0229766,-0.136068,-0.0923188,-0.0893875,0.0653185,0.0653223,0.0746068,-0.141724,0.038983,-0.0201035,0.0507889,0.0472838,
percocet,-0.124365,0.0566954,0.130626,-0.0348807,-0.0577257,0.107627,0.194989,0.0194511,0.0847501,-0.0215225,-0.02851,0.108542,0.0645644,-0.00170347,0.0391142,0.046196,0.0636414,0.0472093,0.128637,-0.0678164,-0.0210073,0.0920315,0.0173268,-0.085048,-0.0468014,-0.0452219,0.0190846,-0.0237647,0.144451,0.0800718,-0.00362515,-0.118751,-0.137797,0.0768701,-0.0139022,-0.026707,-0.023156,0.00558304,0.118105,-0.0923711,0.127603,0.0276783,-0.102723,0.0580723,-0.0439175,-0.15349,0.0770032,-0.0192387,-0.0354199,0.0243481,0.133957,-0.131773,-0.0993038,0.0677064,-0.0823492,0.0431511,0.0125306,0.00975435,-0.022737,-0.227003,0.178698,-0.0553842,0.0178585,0.0439695,-0.161823,-0.120856,0.0368017,-0.19065,-0.0417654,0.0884916,-0.0142589,-0.0132843,-0.0691074,0.00712996,0.00802121,0.0716591,0.031393,-0.043591,-0.107043,-0.0945787,0.120847,0.0782258,0.0832194,-0.101661,0.0559496,0.0968908,0.0466847,0.00152207,0.0866982,-0.0677204,0.0319594,-0.0224398,0.0559776,-0.0550489,0.117775,0.0388854,0.122288,0.0449691,-0.131349,-0.0381739,-0.069555,0.198001,-0.0127139,0.185624,0.0817804,0.0947992,-0.0700836,-0.00621263,-0.150347,-0.0931253,0.0836217,-0.172166,0.0101444,-0.108425,-0.0344418,0.0957523,-0.02637,-0.131932,-0.0502282,0.0341865,0.0396071,0.0825021,0.0382219,-0.00888851,0.100709,-0.226559,-0.00590371,0.0433477,
never,-0.0984721,-0.0119098,-0.0718507,-0.164779,0.046115,-0.16531,-0.086911,-0.00256743,0.0763163,-0.0542369,0.027473,0.0879716,0.139574,-0.203599,0.115142,-0.0423452,0.00401707,0.0658534,-0.00673712,0.0250981,-0.171708,0.0744993,0.00339661,-0.0159158,-0.0674151,-0.202644,0.0596377,-0.0173133,0.0996331,-0.0735583,-0.159958,0.12723,0.0788728,-0.0966488,-0.126697,0.0117734,0.0743015,-0.145576,0.148558,0.0616395,-0.127636,0.0358824,0.123766,0.0536912,0.0463163,0.0894565,-0.12218,0.00452919,0.065054,-0.0900716,-0.0417378,-0.0104237,-0.00913693,-0.0833159,-0.0387208,0.00605036,0.0625575,-0.0545772,0.00723398,0.0450818,-0.0168837,0.105354,-0.0501773,-0.0111865,0.026353,-0.0165334,-0.0577543,0.0368075,0.058174,-0.229087,-0.0608032,-0.119566,-0.00343539,-0.0871275,-0.0598753,0.0764675,-0.0039466,0.0871445,-0.0486185,0.051544,0.166835,0.035852,0.0500379,-0.164452,-0.0180094,0.158151,0.123468,-0.0809254,-0.0549173,-0.0543646,-0.112034,0.0216675,0.0354456,-0.012689,0.0161163,-0.0452298,0.126763,0.0128237,0.0150008,0.0612139,-0.0297749,0.104593,0.0489096,0.0673788,0.0427111,0.0604182,0.0348782,-0.00954473,-0.150705,-0.0865581,-7.30437e-05,0.0134023,0.0185143,0.0122278,-0.0406925,-0.119502,-0.0587151,-0.0572671,-0.307603,-0.0205446,-0.139643,0.0924199,-0.0613517,-0.0616359,-0.0940318,-0.0874842,-0.00884398,-0.0742557,
right,0.146032,0.118129,0.00415658,0.124588,0.0293775,-0.0184281,-0.0960563,-0.0524058,0.0111728,-0.063344,-0.00214204,-0.0767439,-0.100795,0.137294,-0.120458,-0.0113051,-0.0793441,0.0612971,0.00404804,-0.0139469,0.0663678,-0.0347911,-0.141324,-0.0318042,0.204581,0.105884,-0.126569,-0.0962425,-0.0483777,0.0501931,0.0731928,-0.0217687,-0.0042816,-0.099019,0.15351,-0.0887903,-0.00018553,0.0811902,-0.137426,0.0983854,0.0566426,-0.0572142,-0.0248722,-0.112396,-0.150757,0.0333653,0.0160408,-0.233307,-0.0759826,0.0699534,-0.0470528,-0.0311355,0.150668,-0.177106,-0.0679539,0.0687453,0.0309999,0.0801509,-0.149609,0.0144268,0.136476,0.0513507,-0.0796092,-0.118291,-0.107158,-0.169333,-0.0299088,-0.0152747,0.0345768,-0.0324611,0.0573671,0.000549939,0.046332,-0.00225207,0.0610942,0.0836131,0.155642,0.00715928,-0.0548997,-0.0380535,-0.063255,-0.215881,-0.137635,0.039636,-0.0608448,-0.13337,0.0331851,0.0107657,0.0517546,-0.128267,0.0485542,-0.0481219,0.0278477,-0.116106,-0.0280239,-0.103401,0.105367,-0.0606317,-0.000292462,0.05524,0.0188929,0.0120292,-0.0388537,-0.0685253,0.180719,-0.10693,0.0379505,-0.000345985,0.0111318,-0.00340949,0.054972,-0.182012,0.056407,0.0871879,0.00750225,0.0457107,0.0608704,-0.132116,-0.0497765,-0.0440736,0.0208552,0.141614,0.0793764,-0.0895352,0.117605,0.0512166,-0.0566459,-0.0420075,
two,0.0728984,0.0559445,0.0545445,0.0897066,0.0152002,-0.0936934,0.214991,0.124359,0.0648454,0.00477676,0.0892048,0.0232903,-0.0424081,-0.00127352,-0.0599264,-0.0767574,-0.308246,0.0790121,0.119532,-0.0452425,0.113267,-0.142661,0.0335017,0.0385079,0.0525075,-0.0507282,0.0561529,0.0188174,0.0532469,0.0295102,-0.0551535,-0.0711149,-0.0223071,0.0770964,0.016643,-0.0223856,0.15133,-0.0632991,0.0343007,-0.109464,0.00298613,0.024547,-0.270025,-0.0100555,0.071593,-0.0268782,0.0370825,0.154248,0.068548,0.0639507,-0.0858409,0.0708198,0.0946666,-0.0567684,-0.1125,0.0356471,-0.0334592,-0.0240949,-0.0480991,-0.101129,0.0574791,-0.0502521,0.0842272,0.0032429,-0.0793696,0.160002,0.0441828,0.0570584,0.00263028,0.173802,-0.126523,-0.151023,0.0176504,-0.0835307,0.00415511,-0.0315669,0.0356164,-0.0365268,0.124647,-0.0567034,-0.00871746,-0.104776,0.00123767,0.0517998,0.0253676,0.092612,-0.178299,-0.148746,-0.0302335,-0.0506505,-0.00182628,0.104362,-0.0477728,-0.127892,-0.0326754,-0.070564,0.108934,-0.0768303,-0.177832,-0.133201,0.128004,0.0231145,0.0272969,0.0326028,-0.0267895,-0.0391544,0.170609,-0.0364515,-0.0714088,-0.0720447,-0.075187,-0.0934781,0.106329,0.0366215,0.142031,-0.0295403,-0.095653,0.076285,-0.0515473,-0.0835688,-0.0217602,0.0329132,-0.0512999,-0.0874408,0.0666674,-0.0564606,-0.0356815,0.106834,
know,-0.0761292,0.0942537,0.0683916,0.0194146,0.169265,0.0445889,-0.0939535,-0.0141575,-0.100311,0.0398107,-0.0416652,0.0881516,-0.0729554,-0.0365025,0.039278,0.0417204,0.152252,-0.152153,0.0412617,-0.141175,-0.0485899,-0.0182697,-0.0362353,0.0512792,0.162743,-0.0433461,0.0044213,0.0874755,-0.0729046,-0.0419469,0.0088931,-0.0781333,-0.170614,0.0365514,-0.0176694,-0.0216821,0.188276,0.00944243,0.0671456,0.0571989,-0.0291151,0.179348,0.00339176,-0.0427337,0.0349453,-0.00935772,-0.0543206,-0.0193759,0.0569684,-0.0215841,-0.0114661,0.0238675,0.00141801,0.0037957,-0.0338211,0.133292,0.207641,0.0878707,-0.156846,0.113008,0.0605601,-0.0279208,0.0518954,-0.00652434,0.117232,-0.137685,0.0628994,-0.048198,-0.0532653,-0.0946558,0.0119662,0.169506,-0.0246285,0.0789267,0.0170288,-0.0048634,0.129149,-0.0324413,-0.0168391,-0.0148321,-0.0412362,-0.133437,-0.0215176,-0.106887,0.103889,-0.214233,0.024011,-0.0496506,-0.119777,-0.162765,0.0548801,-0.173827,-0.0120777,-0.0539309,-0.0780754,-0.0933824,-0.0387888,-0.0174781,0.0900645,0.142272,-0.224233,0.0177068,-0.00695452,0.251937,-0.0114547,-0.117326,-0.00857996,0.0402884,-0.0404419,-0.01899,0.0661321,0.171594,0.0168699,0.0195575,-0.0166142,-0.0549739,-0.002128,0.0631604,-0.0124615,-0.0789645,0.00577456,0.129986,0.132707,0.0421865,0.0175127,0.0180875,-0.116489,-0.064759,
gave,-0.109879,0.0964194,0.144664,-0.025721,0.040394,-0.0527304,-0.152882,0.0676587,0.0416238,0.0263724,0.0348925,-0.0426059,0.103613,0.0101569,-0.0987829,-0.179744,0.00310077,0.0660107,-0.0578407,-0.0194868,0.163407,-0.0342521,0.0910993,0.0174909,-0.0697786,-0.0332149,0.0786109,-0.0273141,-0.0190252,-0.0569774,0.0500622,0.216077,0.0311198,-0.134967,-0.015678,0.116394,-0.0971877,0.0177247,-0.00934828,-0.0508714,-0.0493142,0.0123537,0.029667,0.00756682,0.0475546,0.00766818,0.185502,0.0730428,0.0257463,0.0309176,0.0787993,0.122682,-0.095251,0.0965485,-0.0594736,0.2509,0.0636531,0.0643804,-0.0253104,-0.157672,0.0831803,0.117685,-0.099773,0.00916647,-0.0680721,0.0302067,0.00249804,0.0628675,-0.0552094,0.160621,0.0506971,-0.0258048,0.00411366,-0.116241,0.0211048,0.00397413,-0.066637,-0.0516453,0.071702,0.0401986,0.0912599,0.0162706,-0.0503605,-0.152173,-0.113488,-0.0462516,0.140238,-0.0477275,0.00362791,0.0729336,-0.0371798,0.156576,-0.0312784,0.18854,-0.0271191,0.156841,0.0540219,0.219981,-0.0977098,0.0517687,-0.0103551,0.184973,0.00237263,-0.0373803,0.00717983,0.12026,-0.00345542,0.0884318,0.103927,-0.0649235,0.00430525,0.178151,-0.0750648,-0.142147,0.0127146,-0.0184392,0.0419809,0.0869188,-0.0505009,-0.0104245,0.0539357,-0.000775561,0.151878,0.0764235,0.0572316,-0.125241,0.00321951,0.0387218,
going,0.0820757,0.0313877,0.0491359,0.0938691,-0.134335,-0.0936209,0.112475,0.0567314,0.027518,-0.0369965,-0.0521622,0.00532146,0.00314292,0.0976914,0.0196309,0.0534482,0.110515,0.0589988,0.0533224,0.249497,0.0123622,-0.108542,0.0152497,-0.0479185,0.0360849,0.173029,0.0293491,0.160531,-0.158749,0.0139355,-0.073594,-0.0349061,0.00720286,0.030439,0.0565344,0.0237425,0.0879556,-0.0665105,0.0950233,-0.141778,0.0658563,-0.0869666,-0.111872,-0.00938972,0.102659,0.0997831,-0.167984,-0.134476,-0.00374059,-0.160525,0.0484351,0.0164182,0.183819,0.0575978,0.10143,-0.265809,-0.0513512,0.0446032,-0.0933476,-0.00229382,0.158239,0.0629333,-0.0965489,-0.0472822,0.0860075,0.0170979,-0.0047264,-0.0651425,0.179301,0.0112667,0.0690518,0.122765,0.0729994,-0.085201,0.0117912,0.108846,0.0484727,0.0382635,0.0556429,0.100917,0.0343972,-0.21157,0.0887996,-0.0412121,0.04486,0.0500644,-0.0520059,0.0643182,-0.0440531,-0.166622,-0.0176916,-0.0639687,-0.0386867,-0.00354918,0.0530629,0.0316928,-0.0651783,0.0626575,0.0351218,-0.0779288,0.0149593,0.0049446,0.131307,0.0823936,0.00421244,-0.0706815,-0.0124458,0.048517,-0.104989,0.101611,-0.118649,0.0374115,-0.136746,0.042156,0.0266215,-0.1035,0.00983272,0.0454201,-0.00799413,0.0920068,0.102587,-0.172327,-0.102757,-0.0444228,-0.00437747,0.0195572,0.0769694,-0.00556707,
fucking,-0.0642223,0.185191,-0.00208146,0.000320575,0.184645,0.0135536,-0.0827136,-0.0400695,0.0745223,0.0861596,-0.058825,0.0242838,0.220424,0.0149648,-0.0795569,-0.0559271,-0.113586,-0.045324,0.0392284,-0.0072799,0.164366,0.0849239,-0.0347487,-0.093749,0.0549376,0.00543363,0.0942357,-0.0521484,0.0302022,0.0273897,0.190316,0.0275505,-0.0118276,0.0404983,-0.117695,-0.00970078,-0.0932225,0.0293077,0.0559356,-0.0560586,0.00638966,-0.0295137,-0.0476379,0.0342805,-0.049249,0.0247942,-0.0477614,-0.0448372,0.0425936,-0.0247749,0.0105785,0.0660186,0.0866699,-0.116776,-0.00668075,0.0838182,0.0118333,-0.195997,0.0691239,-0.000938955,-0.128207,-0.00996924,0.0639817,0.202931,-0.0549214,0.0806375,-0.0556225,0.114507,-0.183162,-0.129643,0.115677,0.0162187,0.0338524,-0.117399,0.101475,0.0737993,0.0166827,-0.0829483,0.0270669,-0.00796854,-0.0837414,-0.0523084,-0.191822,0.0758537,0.0186663,0.0764445,-0.0421092,0.149668,-0.12312,-0.0599624,0.0366747,-0.103629,0.133961,0.0143212,0.0012508,0.0167637,-0.116791,0.0161005,-0.114225,-0.0332987,0.0821022,0.128269,-0.0289066,-0.0120021,0.166124,-0.259724,-0.0208688,0.0437247,0.0521949,0.057927,0.0430349,-0.0953056,-0.0488624,0.0715814,-0.0582049,-0.0582506,-0.0894616,-0.0506292,0.0683031,-0.209744,0.0832189,-0.0177771,0.0707738,0.0303421,-0.0583104,-0.132569,0.0288258,0.102823,
help,0.0637985,-0.0390465,0.00546656,0.129207,-0.0720669,-0.000660143,0.0841067,0.0340729,0.170298,-0.088054,-0.0706284,0.0103336,-0.0631853,0.0295637,-0.0722572,0.0568156,0.108524,-0.0942194,-0.233311,-0.0328475,0.0194374,0.123523,-0.0764571,-0.054045,-0.0102845,0.0638997,0.0621454,0.0101145,-0.0549807,-0.00526114,-0.0478641,-0.193229,-0.0477928,0.00555821,-0.0895587,-0.00361654,-0.0369405,-0.0476338,-0.15974,0.0365283,-0.108018,-0.071447,-0.132696,0.0372286,0.0495823,0.0597172,-0.112781,0.165148,-0.0679784,-0.00644486,-0.0397559,-0.0122278,-0.0521328,-0.123479,-0.0126868,0.0566816,0.0471051,-0.056295,-0.10638,-0.0540371,-0.0332772,0.12019,0.216054,-0.06048,0.0442956,0.0126534,0.0989399,0.13849,-0.127641,-0.0166859,-0.0736808,-0.0363785,0.105925,0.0899125,0.0346323,0.0531612,-0.0940093,-0.156208,0.0733858,-0.111911,-0.107455,0.150539,0.117075,-0.0843003,-0.0289926,0.143447,-0.123369,0.0266226,-0.023923,-0.106839,-0.0212476,0.03955,-0.0667642,-0.110525,0.0822624,0.0256613,0.0965318,0.0690893,0.0732156,0.0188044,0.158267,0.0723405,0.0582975,-0.0233057,0.105285,-0.0802921,-0.204396,0.0192745,0.0295402,0.114713,-0.0603722,-0.0599867,0.101287,0.0886059,0.028717,-0.0361448,0.147819,-0.0832948,-0.0618549,0.0105847,0.180725,0.0115833,-0.0483595,0.141831,0.0289015,-0.128533,0.00177596,0.0435502,
zoloft,-0.0893861,-0.137525,0.000997278,-0.0153774,0.0332293,-0.000582998,-0.125265,0.0426897,-0.0534944,0.0629944,-0.0719589,-0.10407,0.0935929,0.0680406,-0.109339,-0.00482499,0.0211991,-0.00488633,-0.0332035,0.0997542,0.112503,0.0789781,-0.168903,0.0449369,-0.0272597,0.0637614,0.0237951,-0.148226,-0.0098418,0.0255311,0.113051,0.210751,0.110422,-0.0135231,-0.0641653,0.0305913,-0.0209014,-0.0602837,0.186206,0.056619,0.141923,0.00506272,0.0189011,0.0495809,-0.0379759,-0.0851309,0.0816475,0.0490007,-0.0223425,0.155326,-0.0367901,0.0234672,0.114332,-0.00201357,0.0750771,-0.214374,-0.0755355,-0.0728435,0.173537,0.189302,0.0220274,-0.0805708,-0.0432011,0.0044231,0.0651463,0.0408798,-0.0484437,0.0204285,0.170945,0.143396,-0.0178396,-0.00916846,0.0365706,0.0979238,-0.00291647,0.0401253,0.128028,0.047207,0.0471931,-0.0515593,-0.0942218,-0.000469303,0.0184403,-0.0129726,-0.062918,-0.0357882,0.0470924,-0.0396671,0.0639797,-0.0718472,0.145849,0.0328916,-0.077237,-0.134684,0.0968725,0.0844208,-0.0885826,-0.107194,-0.0922713,-0.0127738,-0.120181,-0.035194,0.128404,-0.19093,0.0877732,0.0446278,0.0609909,-0.0921285,0.0639129,-0.134429,0.034368,0.0691664,0.0921163,-0.0106914,-0.0871159,-0.0840284,0.160428,-0.0801681,0.147651,0.168178,-0.0134424,0.110188,0.0583603,-0.0567047,-0.00542946,-0.0179218,-0.153048,-0.0468608,
anxiety,-0.0212616,0.133616,-0.177514,-0.171077,0.0999926,0.232374,0.0728088,-0.065749,0.00578825,-0.0791358,0.0858476,-0.017322,-0.0647988,-0.0325359,-0.0937144,-0.080543,-0.038648,-0.0731155,-0.0213529,0.05484,-0.0648514,0.0854682,-0.0129051,-0.0850153,-0.0640359,-0.127945,0.0332972,0.0390125,0.0610697,-0.0880166,-0.0402551,-0.0775867,-0.135617,-0.0653253,-0.0742006,-0.0341134,0.0012766,0.0850329,0.0598028,0.178564,0.118216,0.186299,-0.131771,-0.0199923,-0.101946,0.0987634,-0.0302341,-0.0495075,-0.0341293,0.11516,0.0947942,0.123289,-0.0509518,0.108534,-0.0672023,-0.115571,-0.0383965,0.0208664,0.0919943,-0.145635,-0.041613,0.0930747,-0.0977701,-0.101923,-0.0267028,0.170228,0.114961,-0.0741375,0.0215409,-0.0454819,0.117073,-0.0488838,0.0217614,-0.0269806,0.083096,0.03316,0.217867,-0.0300754,0.0371406,0.064647,0.0791456,-0.0222596,-0.0317499,-0.0530205,0.0567403,-0.0163818,-0.135675,-0.0511248,-0.0388163,0.0691623,-0.064125,0.0746815,0.084773,0.0781195,-0.0336681,0.00746674,-0.0234018,0.0318096,-0.0186786,0.0221728,-0.00123865,0.0638143,0.0608411,-0.164205,-0.120145,-0.000723794,0.107262,-0.0443532,-0.104572,0.00415023,0.0678454,0.103458,-0.00379858,0.182751,0.0750048,-0.168413,0.108217,0.162645,0.0498662,-0.046665,0.00974309,-0.129886,-0.0700429,-0.130047,0.0740682,0.0598641,-0.0317347,-0.0224656,
since,-0.00700496,-0.100694,0.0616094,-0.0560667,-0.0806612,-0.0553552,0.0253712,-0.0187299,-0.0233188,0.114962,-0.106397,-0.0400843,0.0414965,0.0828677,-0.0338462,-0.0439006,-0.170381,-0.0348082,0.0872644,-0.0692723,0.0993366,0.148092,0.0750612,0.0225901,0.0465703,-0.0201615,-0.0141586,0.214958,0.157516,-0.0917489,-0.116486,0.167459,-0.111716,0.0289966,0.0938623,-0.0195917,-0.00332513,0.114625,-0.0287546,-0.0364624,-0.0697282,0.133657,-0.0796418,-0.000116365,-0.104137,0.0698219,-0.0876154,-0.0771295,0.0528683,0.175196,-0.0873859,0.183827,-0.00704046,0.117732,-0.107319,-0.0311213,0.175429,-0.00452011,0.049695,0.135945,-0.0913325,-0.0259557,-0.0812946,-0.00897222,-0.0293202,0.000423553,-0.03446,0.0313743,-0.0978387,-0.00571079,0.0853255,-0.0854414,-0.00819769,0.0361237,-0.0247967,0.0615483,0.126385,-0.146254,0.118986,-0.0302644,-0.031367,0.13795,0.0315583,-0.0489217,-0.157284,-0.098567,0.0699141,0.112712,0.0895252,0.00762917,0.0798976,-0.00294169,0.0287317,0.0575295,-0.0511246,-0.0601187,0.00664684,-0.0738452,-0.0667666,0.00257877,-0.00717715,-0.0585347,-0.0646229,0.0946729,0.0771075,0.130411,-0.161917,0.00806804,-0.002054,0.0597246,0.185653,-0.0946658,0.200144,0.103361,-0.181489,0.019359,-0.105263,-0.123546,0.0180185,0.017326,-0.0606241,-0.00166541,0.0426199,-0.184486,0.0257703,0.00631419,-0.0495036,0.0480519,
meds,0.196901,-0.0142335,-0.108304,0.0607606,0.113596,0.107966,0.019201,-0.0266139,0.0523604,0.0757482,-0.0478395,0.0805548,0.0968744,-0.00013577,-0.0756676,0.182154,-0.0678324,0.0281792,0.0748686,-0.116276,0.159603,-0.0325248,-0.126848,0.0298555,-0.0847156,-0.141495,0.18861,-0.125636,-0.0998648,-0.0481018,0.0682955,0.00964382,-0.103087,-0.17691,0.0307042,0.0440011,0.0196704,0.0809356,-0.0588907,-0.0201523,0.077123,0.019236,-0.0517066,-0.123713,0.0934101,0.113428,-0.0928727,0.0887992,0.00209151,0.0144249,-0.131846,-0.118098,-0.0408123,0.0540979,-0.0330718,0.0714227,-0.0812009,-0.105084,-0.121351,0.235898,0.0618911,-0.00711892,-0.024892,0.06283,0.0796709,0.0304001,-0.0889401,-0.0472221,-0.00729717,0.101062,-0.00410327,0.233129,0.0112661,-0.0521053,0.026223,0.038839,0.131225,-0.0722357,-0.115891,-0.0462798,0.132412,0.0899652,-0.0857674,0.10925,0.154485,0.143481,-0.027447,-0.0066651,0.114876,-0.031815,-0.0507462,-0.00283704,-0.0373853,-0.045198,-0.013251,0.0901853,0.0193516,-0.0343453,-0.0970195,0.0468984,0.0356408,0.119928,-0.0861191,0.0400228,0.0197326,-0.119877,-0.0438351,-0.0205318,-0.047066,-0.0281282,0.126974,0.0401028,0.032116,0.0367188,-0.0482612,-0.0432232,-0.0591843,-0.0619885,0.0554757,-0.16045,0.00256841,-0.0623169,-0.0518839,-0.0381439,0.149911,0.0417465,-0.188228,-0.0638572,
yes,0.161348,0.173727,-0.114966,0.0321828,0.110862,0.0532081,-0.057396,0.00946503,0.115746,-0.0512064,0.161293,0.0456183,-0.0289929,0.0220401,0.0257573,0.056009,-0.0325194,0.0881037,0.0771259,0.103922,0.00196985,0.0732078,-0.178589,-0.114365,-0.0689702,-0.0558542,0.0259877,0.046433,-0.0934915,-0.172607,0.0264562,0.113993,0.0400381,0.0520054,0.06844,-0.107129,0.0108841,0.00698045,-0.0137195,0.0758019,-0.0876692,-0.178109,0.00733628,-0.0517131,-0.152509,0.0246819,0.00260446,0.198276,0.0497558,-0.176879,0.00335641,-0.00261926,0.0264957,-0.0420703,0.0181984,-0.0397918,-0.181485,0.133508,-0.0921392,0.0426309,0.0685623,0.0335762,-0.0740769,0.0692863,0.033716,-0.0427596,0.0331387,0.0927544,-0.0524822,-0.102507,-0.0306833,0.0449813,0.0628578,0.0138162,0.0689596,0.031851,-0.00298944,-0.0733762,-0.172465,0.00253366,-0.0481331,0.0441028,0.0706442,-0.0409226,-0.0954515,-0.0287624,-0.00236481,-0.15373,0.0442094,0.126212,0.170166,0.0766173,-0.0371348,0.0515376,-0.110835,0.117614,-0.0525643,0.0893671,-0.0483736,0.290375,0.00175265,-0.0378149,-0.157695,-0.00751078,0.00459272,-0.14071,0.0174805,0.000927387,0.0218297,-0.0790629,-0.00227406,-0.139713,-0.0516321,0.0731878,-0.10483,0.0415611,-0.0893281,0.0773883,-0.0836079,0.0237759,0.0468162,0.0729277,0.158583,-0.0456157,-0.0397621,0.140399,-0.0728131,0.0253107,
high,-0.135557,0.0575741,0.0140734,-0.0701671,-0.0808796,-0.0494913,-0.0823387,-0.027215,0.148424,0.113903,-0.0768951,-0.0951766,-0.187562,-0.0157607,-0.0817379,-0.0371268,-0.058443,0.00168414,0.0789154,-0.167996,-0.236507,0.038004,0.0868228,0.0864701,-0.0385565,-0.0990753,0.0753852,0.10314,-0.00169743,0.0244724,-0.0445735,-0.0216654,0.0182833,-0.141629,0.0706728,-0.0802615,0.0753502,-0.0361032,0.0447994,0.13046,-0.025288,-0.182252,-0.00580485,0.0172379,0.0374294,-0.0120469,-0.0326951,-0.0767579,0.0585671,0.00949696,-0.0690095,0.0982107,0.0122741,-0.0364779,0.145428,0.0776523,0.121382,-0.0905623,-0.122536,-0.0117887,0.106869,0.00128249,-0.0829708,0.0886822,0.11995,0.0926202,-0.0376686,-0.0341447,0.0387156,0.068833,-0.0202696,0.172753,-0.144827,-0.0585955,0.0683907,-0.0398218,-0.142474,-0.0516632,0.167812,0.0054934,-0.0339955,0.041899,-0.0606627,-0.11839,-0.03928,0.066528,0.0308096,0.0850527,0.00203796,0.163522,0.084212,-0.0239237,-0.0366773,-0.119387,0.00472548,0.11013,-0.0880047,0.0695881,0.0899815,0.0307979,0.0708249,0.0225861,0.0312836,0.109407,-0.0172288,-0.00389386,-0.0410236,-0.208206,-0.00297848,0.0777465,0.00681334,-0.0877037,-0.161512,0.0238191,-0.060966,-0.104599,0.0434065,0.086116,-0.0252842,-0.037092,0.0664039,0.0897268,0.0079233,-0.114681,0.0762262,0.162319,-0.119804,-0.214578,
well,0.0451968,-0.0783167,0.0129818,0.19643,0.098952,-0.00198787,-0.00105057,0.0129702,-0.0394105,-0.0846248,0.017155,0.0378386,0.0303249,-0.0308741,0.106352,0.0662454,0.000904834,0.0350182,0.077376,-0.0190129,0.0183648,-0.00376828,0.109464,0.0273227,0.00422798,0.0277499,-0.0379552,0.09169,0.0372785,-0.0806567,-0.0324676,-0.0692763,0.12525,-0.100132,0.126481,0.0259407,-0.0132795,0.0269241,0.143944,-0.0358849,-0.0341352,0.152543,-0.086494,-0.00221656,-0.0839851,-0.0587418,0.00825965,-0.0900041,0.070072,0.00278834,-0.0551035,-0.0457319,0.107375,-0.0533719,0.0340568,-0.0408015,-0.0101176,-0.0878337,-0.0575543,-0.0738398,-0.068773,-0.0184269,0.0232207,-0.18439,-0.23638,0.0851028,0.0178795,0.0144138,0.0629009,-0.110168,-0.188654,-0.0946337,-0.174216,-0.132246,0.229397,-0.0237514,-0.181782,-0.0199938,-0.100062,0.0432389,-0.0941269,0.126995,0.0517952,-0.0757194,-0.0137139,0.0540368,-0.0440059,-0.0553944,-0.00592956,-0.161678,-0.0412987,-0.0555176,-0.0686199,-0.11718,-0.135076,0.106781,0.031565,-0.0865862,0.121435,0.164759,-0.167664,-0.0182331,-0.0399363,-0.0708594,-0.131649,-0.111732,-0.0815057,-0.043327,0.13038,-0.116846,-0.0246316,-0.0580319,-0.127225,0.0535315,-0.0458058,0.0417865,-0.0952161,0.00321204,0.000267189,0.163266,0.0473378,0.0781228,0.0601817,-0.0205132,-0.0713344,-0.178762,0.0999541,-0.0553523,
days,0.036875,-0.0605372,0.117406,0.0343007,0.15429,-0.00177623,-0.0390444,-0.024626,-0.105457,-0.0532926,-0.0145966,0.0724207,0.0344581,-0.00612677,0.0915973,-0.112007,-0.0625128,-0.0257967,-0.0931454,-0.00428827,-0.026315,0.0319778,-0.0340072,-0.0135413,0.00139611,-0.133465,0.0747354,0.0359933,-0.0944059,-0.0990783,-0.200313,0.0141827,-0.00986344,-0.203324,-0.0798436,-0.0955636,-0.115092,0.00125433,-0.0708339,-0.12393,0.0347159,0.0384857,-0.0427872,0.0648774,-0.0864921,0.130515,0.0921247,-0.0197887,0.135861,0.0152302,-0.138874,0.0619604,-0.198806,-0.0119398,0.0825169,0.0474655,-0.105466,0.0325618,-0.0261734,-0.0170935,-0.0713837,0.0991014,0.084556,0.115493,0.00886385,0.0428563,0.0246652,-0.0775483,0.210818,0.111182,0.0314147,-0.224565,0.0334458,-0.0564963,-0.0425199,0.0205597,-0.173526,-0.0646466,0.109662,0.0401598,0.0520685,0.101209,0.0112715,0.0608358,-0.179065,0.0877248,-0.117916,-0.047591,-0.0226925,0.000686098,0.148183,-0.0626404,0.0754033,-0.00458951,0.0187715,0.0718637,-0.0928871,0.0767127,-0.115667,0.0569525,-0.0819621,0.0950032,-0.0334672,0.169503,-0.0486428,-0.102229,0.0795374,-0.0218651,-0.00459086,-0.144189,-0.0339242,-0.0645556,-0.078829,-0.0256024,0.153956,-0.0231806,0.0734311,-0.0486419,0.0659368,0.0501239,-0.114971,-0.0486324,0.0146255,0.160125,0.0198269,-0.0688189,0.121395,-0.171902,
norco,0.115456,-0.0101062,-0.153749,0.0293065,0.0300677,-0.0286336,-0.082248,0.165043,0.011537,0.0437033,-0.0613105,-0.178168,-0.0139588,-0.0379662,-0.0772608,0.100197,-0.127391,-0.127194,0.00797875,0.0787441,-0.0620541,-0.0589915,0.0154178,0.13301,0.0474085,-0.0460642,0.0361375,-0.185079,-0.0756343,-0.133433,-0.116506,-0.0728726,0.0619366,0.0850349,0.0318681,-0.114449,-0.0500275,-0.0485632,0.137078,0.0168864,-0.00188595,-0.0652994,-0.123264,-0.0801933,0.0189501,0.171076,0.0341489,-0.119816,-0.0787382,-0.111321,0.160434,-0.135218,-0.0423137,0.0729186,-0.0262463,-0.120144,-0.00539291,0.010767,0.007446,0.0158699,-0.0918054,-0.0257969,0.153483,-0.0581187,0.0423731,-0.0026244,-0.0556886,0.0622792,0.167099,-0.0477981,0.128011,-0.083593,-0.0854179,0.0516553,0.131622,-0.0102888,0.0371566,-0.0682043,-0.132889,-0.113428,0.138289,0.0170569,0.0698479,-0.0740516,-0.0781092,-0.0871684,0.118052,0.0919219,0.045237,-0.0114576,-0.114562,-0.076412,0.05904,-0.0324452,-0.0677986,-0.0849334,-0.222326,-0.00434605,0.131302,0.00591661,-0.0382487,0.0347527,-0.00430582,0.045035,0.0655668,-0.0414872,-0.0744973,-0.0113918,0.00440828,0.156749,-0.0539508,0.0144403,-0.0116296,0.035341,0.0394594,0.107244,0.0154772,0.150153,-0.107458,-0.0903582,0.0708442,0.220361,-0.0667593,0.00321021,0.149768,0.00689167,-0.0630263,0.0379894,
also,0.0373798,0.0678381,0.138401,0.0310052,0.00925048,0.00785292,0.0113062,0.091639,-0.132785,0.0162322,-0.0484518,-0.0228125,0.0589296,-0.209407,0.121975,-0.053554,-0.0129978,0.0805653,-0.0256654,0.0802865,0.107009,-0.0242352,0.0371878,-0.137702,-0.0429552,-0.0162002,-0.0136323,-0.0716773,0.045698,-0.173045,0.0192945,0.021039,0.0213217,-0.0653303,0.00237638,0.0914434,-0.0682669,0.0365443,-0.0771509,-0.0213984,-0.0575636,0.00052578,0.00346039,0.0410252,-0.201697,0.143598,0.0892707,0.11108,0.0311065,-0.0693456,0.0569441,0.0530283,-0.0458615,0.0317825,-0.0591774,0.0288913,0.0139621,-0.0554377,-0.0293746,-0.0278051,-0.116296,0.00189056,-0.00232446,-0.0137699,-0.0530777,0.0949409,0.0921725,-0.0605578,-0.0306768,-0.150311,-0.0466931,0.146099,0.0467313,0.0240547,0.0491142,-0.101884,-0.119281,-0.0346861,-0.147239,0.0303716,-0.00571505,0.0170136,0.0131303,0.0762447,-0.128912,-0.201453,0.0692502,0.0358139,-0.0143073,-0.187165,-0.108628,0.0767822,-0.0490496,0.0783886,-0.0344475,-0.115752,0.0683815,-0.160199,-0.00513849,-0.0560636,0.0128033,-0.0278072,0.0318424,-0.0801829,0.153051,0.194583,-0.0179841,0.0667885,-0.284173,-0.027261,0.0358531,0.0771274,-0.0106352,-0.0522241,-0.0971282,0.0252169,0.254565,0.142979,-0.116752,0.055324,0.0678394,0.081984,-0.0552397,-0.130425,0.0380062,-0.0843193,-0.0286652,-0.142582,
ever,-0.139882,-0.0463288,-0.0148415,-0.0936051,0.0879185,-0.148027,0.246409,-0.0902937,-0.0856066,0.131052,-0.11017,0.0788711,-0.0260379,-0.157065,-0.0887603,0.155506,-0.0863231,0.150189,0.034438,0.059042,0.103064,-0.0367319,-0.0280549,-0.00891613,0.0772476,-0.0496725,0.0582317,-0.0639273,-0.0376129,-0.11894,0.122887,-0.0941569,-0.142269,-0.0464,0.155341,0.16686,0.0017456,0.00486558,-0.0849378,0.0544504,0.152908,-0.125297,-0.0299142,-0.053193,0.14262,0.0258051,0.0516943,0.0660118,0.0947255,-0.0321658,-0.0432684,0.0975637,0.183056,-0.224224,-0.0345078,0.0469703,-0.0810835,0.0901655,-0.0377739,0.0551735,-0.0437825,-0.064163,0.0188294,-0.055846,0.0440159,0.0424241,0.00175194,0.00952441,-0.0302959,-0.0708457,-0.0262369,-0.0610637,-0.00725241,0.0776,-0.130425,0.0601973,0.0942257,-0.0539167,-0.0772641,-0.00931283,0.148443,-0.0281055,0.0809362,-0.0537378,-0.0162779,-0.131431,-0.10822,-0.0821322,-0.0175899,-0.010587,0.0948403,0.110317,0.0892848,-0.00398286,0.0476895,0.0298677,0.0172071,0.130119,0.0437189,-0.0667458,0.107442,-0.00992797,-0.0630464,-0.0395614,0.0489349,0.0821495,-0.178676,0.0356402,0.114561,-0.00792938,0.0767855,-0.0589247,-0.0373956,-0.116644,0.160103,0.0024966,0.0543897,0.148926,-0.0221907,-0.0834857,-0.0377074,0.0500964,0.0448405,0.0523185,0.0597691,0.137035,0.0482323,-0.0536866,
making,0.0723141,-0.12492,0.0600663,0.0891202,-0.00797386,-0.161109,0.0605309,0.0552346,-0.00230815,-0.0220386,0.0293552,-0.0299491,0.0202614,-0.0359124,-0.119392,-0.0608292,-0.00647669,0.0808199,0.0971006,0.145829,0.161723,0.0464999,-0.00389074,-0.0181905,0.0479003,-0.0653687,0.0442035,-0.062009,-0.0212678,0.0353144,0.0508418,0.0883549,0.0841574,0.0369971,-0.0477306,0.16623,-0.105724,-0.0276149,-0.0238755,-0.106167,-0.0264598,0.0140977,-0.206563,-0.0107669,0.0212772,0.0802819,0.0286069,-0.0410195,-0.144324,0.110309,0.037419,0.0936129,-0.066094,0.0296437,-0.0327067,0.134664,-0.0522057,0.0139675,0.075616,0.00323122,0.038528,0.117017,0.0122097,-0.145318,-0.0536961,-0.153552,-0.0665067,0.0641654,0.0947014,-0.162499,0.0763738,0.15928,-0.0313742,0.0733071,0.141275,0.0387513,-0.212599,0.0270687,0.0355482,-0.0479809,-0.0706681,-0.168646,-0.0560832,0.124909,0.0538096,-0.165501,-0.0453705,-0.0100943,0.00209683,-0.094723,0.0315891,0.0528632,0.0563382,-0.115141,-0.0705116,0.0200774,0.0601504,0.0037109,0.0794023,0.0552105,0.0917678,-0.158098,0.117546,-0.0728094,0.0411358,0.0221135,0.201501,0.0226574,0.169298,0.206417,-0.0670341,0.0970221,-0.0578898,0.0700351,-0.0303974,0.0208679,-0.005274,-0.171681,-0.0882816,-0.0734053,0.0747411,-0.0044913,0.0155313,0.102617,0.00257262,-0.00234523,-0.102514,-0.152855,
sick,-0.0518899,0.000519836,0.0763342,0.111318,0.0578272,-0.0412967,0.103424,-0.11568,-0.00150098,0.0245783,-0.000486124,-0.0924996,0.140637,-0.228664,0.0822158,-0.00409681,0.0137041,-0.110934,0.155099,0.135322,0.0379823,0.121421,-0.0809447,-0.176741,-0.0131618,-0.0308259,0.152657,0.111441,-0.00685667,0.219456,-0.0479746,-0.0117165,0.131804,0.0765894,-0.0341633,0.0494221,0.0140555,0.124451,-0.0219123,0.019474,-0.0713149,-0.0499419,-0.158815,0.00743065,-0.0301417,0.0506707,-0.0126988,0.109072,-0.00535587,-0.0104548,-0.0661982,-0.177994,0.242488,0.0519944,0.0177291,-0.0505698,-0.123335,0.137711,0.035552,0.0266125,0.0994888,0.0748014,0.0589867,-0.0159012,-0.0230601,0.0740939,0.0131697,-0.0545804,-0.0174065,-0.0217959,-0.141557,0.059525,0.137891,0.0382598,0.0146046,0.0150052,-0.0883897,-0.0285762,-0.00316002,-0.0408984,0.022017,-0.0505192,0.0344061,-0.0101107,-0.106451,-0.166778,0.0625908,0.00752998,0.0208497,-0.129401,-0.0599109,-0.054337,0.063087,-0.0868319,-0.0466485,0.0613089,0.0189134,-0.0979605,-0.0180758,0.0311292,0.0368434,0.122865,-0.179196,0.0268484,-0.0994324,0.0114335,0.00775814,-0.180679,-0.0303391,-0.000896308,-0.152583,0.0553901,-0.0308282,-0.00333739,0.130062,0.128846,-0.0275177,0.0596338,-0.100796,-0.0229526,-0.074259,0.0684037,-0.0104364,0.161831,0.110569,-0.044394,-0.106087,0.150193,
helps,-0.0210868,-0.0315608,0.0952392,-0.0285293,0.0720774,-0.0224544,0.027311,0.0367506,-0.0565369,-0.120489,0.00172714,-4.20526e-05,-0.103215,-0.121008,0.0818992,0.00941353,0.0251578,0.0301062,0.193825,-0.0283164,0.0810007,-0.0950488,-0.154926,-0.141007,-0.121017,0.040241,-0.188936,0.0218373,0.00452759,0.0386648,-0.0739159,0.0794012,-0.0130739,-0.0659863,0.00759328,-0.0647429,0.0513512,-0.0858478,-0.239359,-0.0330769,0.0671634,0.20314,0.0667306,0.175576,-0.0839135,-0.0377949,0.0575066,-0.0138606,0.00104005,0.00479004,-0.0633076,-0.0487308,-0.0627154,0.000290831,0.0261378,-0.0709368,-0.0780263,-0.094992,-0.0863091,-0.0843444,0.0959649,-0.191492,0.101872,-0.155231,-0.0776095,0.068639,0.00766814,-0.0593217,-0.136571,0.0755828,-0.114677,-0.0672711,-0.0845237,0.127315,-0.0379675,-0.016448,-0.0522702,-0.060993,0.011547,0.0298406,-0.0433707,-0.0244473,-0.0978529,-0.0908745,-0.00105893,0.0111985,-0.16724,-0.071979,-0.0362198,0.0234409,-0.00264731,-0.0410301,0.032402,-0.050888,-0.136352,0.0736267,0.0243774,0.0210645,0.171808,0.113968,-0.079703,0.0530837,-0.0741504,0.0299172,0.185368,0.0202591,0.18421,0.066401,-0.156392,0.0521228,0.0889595,-0.0295309,-0.0169112,-0.0859598,-0.0497207,-0.0900502,-0.186852,-0.155225,-0.04956,-0.0666346,0.0946497,-0.0722245,-0.0309828,0.0202511,-0.0572484,0.0260717,0.153573,-0.0237124,
